/*This file is automatically generated from a Keras model*/

#ifdef HAVE_CONFIG_H
#include "config.h"
#endif

#include "rnn.h"
#include "rnn_data.h"

static const rnn_weight input_dense_weights[912] = {
   0, 3, 3, 19, 5, 4, -19, 0,
   -3, 0, 1, 1, 6, 4, -6, -1,
   1, 17, 11, 0, -1, 3, -1, -4,
   -18, -2, 14, -1, 4, 8, -18, -4,
   -16, -21, -51, 16, -10, 8, -2, 1,
   0, -10, -6, -15, -1, -7, -5, -3,
   -28, 4, 22, 9, -20, 37, 2, 5,
   -11, -14, 26, -7, -31, 4, 6, -18,
   -12, 8, -10, -43, -1, 7, 5, 12,
   3, 3, 25, 16, 5, 44, 6, 23,
   3, 6, -22, -27, 11, -7, -5, 12,
   -44, 26, -12, -19, 4, -3, 10, 4,
   46, 8, 37, -9, 11, 3, -28, 8,
   -8, 11, -16, -17, 3, 0, -4, -21,
   -20, 19, 5, 27, 12, -15, 7, -30,
   59, 21, 54, -35, -30, 6, -16, 1,
   -9, 31, 29, -2, 7, -15, -10, -35,
   9, 1, 2, 29, -11, -11, -5, -31,
   12, 61, 127, -22, 33, -31, 43, -10,
   14, 73, -11, -73, 119, -18, 19, -86,
   -23, 9, 57, 127, -43, -16, 25, 54,
   23, -33, 21, -23, 124, -11, 69, 39,
   -43, 8, 3, -92, 31, -59, 57, -128,
   -65, -6, 54, 113, 101, 32, -13, -23,
   -29, 28, 127, -45, 17, -29, 93, 17,
   30, -68, 85, -90, 5, 20, -31, 55,
   14, -61, -42, -26, 113, 28, 29, 88,
   -1, 68, 96, -68, -30, -30, 35, -11,
   5, -127, 52, -78, -40, 9, 25, -4,
   127, -33, -34, -28, 20, -46, 37, -74,
   127, 10, 98, -26, -77, -21, -43, -114,
   -4, -21, -63, 88, -78, 61, -77, -10,
   64, -42, -22, -39, 89, -47, 26, -10,
   108, -13, 109, 35, 3, 58, 21, -50,
   122, -14, 12, -18, 126, 51, 4, -1,
   80, -116, -102, -127, 43, -50, 22, -73,
   19, 73, -80, 39, 93, 70, -121, -64,
   47, 120, -41, 42, 101, 50, -92, 64,
   -61, 50, 127, -15, -10, -71, 54, -18,
   19, 92, 85, 11, -121, 40, 66, -23,
   105, 42, -128, 92, 2, 71, -6, 63,
   126, -32, -49, 76, -5, -50, 75, 127,
   -45, 40, -128, 127, 127, 127, 64, 87,
   -47, 110, 19, 2, -49, 27, 20, -1,
   127, -36, -60, 75, -66, 38, -127, -68,
   -38, -35, -128, 1, 127, -25, 11, 30,
   127, 127, -21, 109, 76, -88, -45, -3,
   127, 18, 46, 127, -17, 71, -4, 87,
   97, -33, -126, -54, -18, -124, 1, 81,
   17, 111, -70, -78, 48, -7, -122, -16,
   117, 122, 45, 44, 38, 95, -26, 127,
   -40, -76, -15, 43, 47, 127, 96, -67,
   39, -105, -67, 127, -89, -55, 127, -80,
   127, -33, 94, 127, -35, 17, -39, -128,
   91, 126, -48, 19, 58, 15, -15, 127,
   127, -119, -25, 97, 40, -8, 41, -44,
   -11, 70, 41, -2, -42, 29, -57, 127,
   127, -83, 4, 25, 34, -9, -66, 0,
   127, -128, -31, 127, -26, 38, 65, -23,
   65, -13, -32, -80, -97, 6, -63, 47,
   41, -128, -53, 113, -107, 88, 11, 105,
   -128, 2, 29, 58, -128, -7, 39, -122,
   -58, -59, 99, -84, -57, 84, 7, -26,
   -95, 1, -53, 49, 25, -32, -64, 57,
   -2, 9, 8, 67, -30, -3, 18, -7,
   -107, -119, -36, 40, -31, -28, 52, 55,
   -22, -58, 26, 77, 89, -37, -1, -90,
   -125, 100, -61, 37, 50, -66, 114, -37,
   -13, -30, -36, 28, -4, 15, -4, -127,
   -108, 1, 7, 33, 22, -3, 14, -27,
   -105, 72, 122, -95, 26, -99, -11, 55,
   -71, -128, -15, 52, -62, -13, 18, 20,
   71, 106, -62, -3, -5, 127, 9, 93,
   -35, -122, -17, -40, 17, -8, -16, -2,
   1, -83, 10, -9, -24, 9, -46, 43,
   86, -32, -7, -37, 61, -24, -27, 14,
   40, -75, 104, 26, 53, 2, 53, -6,
   -7, -59, -26, -34, -17, 57, -29, -43,
   -20, -77, -39, 1, 43, -63, 43, -12,
   107, 35, -52, -23, 76, -11, 2, -83,
   -21, -119, 58, -44, -14, -49, 13, 64,
   0, -44, -62, -65, 34, -4, 48, 8,
   3, -2, 46, 84, -3, -40, 2, -9,
   -106, 1, -7, -32, 3, 31, -22, -54,
   -124, 9, 15, -126, -49, -39, -57, -22,
   37, 91, -54, -1, -68, -26, -75, -3,
   -31, 52, -49, 36, 34, -54, 21, -45,
   -127, -18, 2, -75, -69, -10, -65, -43,
   -45, 50, -51, -13, -47, -2, -72, 3,
   -103, -87, -60, 22, 15, -57, 10, -45,
   46, 82, -26, -88, -66, -12, -25, 88,
   -18, -69, 49, -33, 28, 113, -65, -31,
   17, -66, 27, -65, -128, 127, 127, -78,
   -61, 48, -82, 16, -1, -48, 47, 52,
   65, 11, -3, -44, -128, 0, -65, 106,
   127, 19, 98, -100, -128, -77, 119, -65,
   90, 28, -127, 1, -37, 79, -34, 81,
   -105, 79, 45, 58, -69, 14, 32, 43,
   -49, -31, 23, -22, 100, -17, -61, 91,
   -21, -14, -30, -57, 16, -37, 23, 115,
   7, 44, -15, -71, 43, 109, -34, -24,
   -74, -105, -4, -1, -20, -128, 0, -19,
   26, -106, 32, 113, -38, -30, -74, 45,
   -8, 46, 29, -24, 17, 51, 65, 19,
   27, 20, -13, 80, 78, -109, -62, 110,
   -18, 7, 127, 34, -96, -22, -28, -49,
   7, -30, -26, -86, 86, 19, -11, -80,
   85, 27, -3, 81, 34, -124, -50, 85,
   -15, 29, 127, -66, -46, 77, -8, 70,
   -29, 81, -59, -123, 28, -42, -12, -79,
   33, -9, -59, 16, -25, -86, -36, 7,
   -5, 8, -15, -38, -13, 52, -48, 48,
   11, 17, 18, -7, -33, -4, 3, -10,
   14, 45, -28, 17, 44, 7, 37, 21
};

static const rnn_weight input_dense_bias[24] = {
   47, 11, 4, -46, -51, 127, 127, -11,
   96, -71, -52, 21, 127, 17, 127, 60,
   -128, 38, -128, -112, 15, -128, 100, -48
};

const DenseLayer input_dense = {
   input_dense_bias,
   input_dense_weights,
   38, 24, ACTIVATION_TANH
};

static const rnn_weight vad_gru_weights[1728] = {
   -128, 127, 127, -9, 77, 22, -17, 89,
   48, -53, 14, 19, -40, -114, 127, 95,
   127, 59, 120, 125, -97, -40, -30, 110,
   126, 126, 13, -102, -64, 31, -8, 51,
   -11, -92, 39, -13, 29, 101, -4, -88,
   32, 62, 44, 77, -24, 2, 6, 112,
   -5, -12, 31, 9, -29, -33, 24, -23,
   31, -38, 47, -40, 62, 9, 30, 4,
   34, -81, -5, 20, 62, 37, -20, -47,
   -128, 21, -119, 18, -67, -64, 30, 42,
   19, 93, -41, 29, 62, 50, -52, 69,
   44, 121, -2, 3, -11, 119, 4, -91,
   -52, 127, -128, -14, 7, 108, -1, -1,
   89, -53, -57, 7, -47, -7, -5, 5,
   32, -59, 34, -89, -60, -127, 48, -44,
   46, -44, 63, 28, 27, -34, -13, -36,
   0, 36, -10, -7, 49, 17, -1, 98,
   64, -59, -53, -76, 14, 50, 92, -47,
   -91, -78, 37, -80, 71, 53, 28, 1,
   -48, -108, 59, 30, -45, -25, 127, -13,
   95, -103, -72, -78, -115, -33, -41, 60,
   13, -94, 45, 5, 7, 14, 29, 3,
   -3, -6, -105, -38, -118, 55, 65, 5,
   -25, -32, -128, 127, -52, -27, -11, -79,
   -52, -27, 3, -17, -25, 60, -48, 63,
   -20, 81, -40, 108, -17, -94, -73, -68,
   -42, 60, -6, 89, -7, -76, 7, -2,
   75, -36, 60, 24, 13, -15, -44, -42,
   7, 85, -11, 24, 54, -3, 19, 54,
   52, 0, -43, 57, 13, 48, 45, -18,
   21, -66, 87, -19, -23, 40, -3, 6,
   -104, 9, 13, -33, -17, 14, -34, 15,
   24, -17, -65, -10, 4, -6, -56, 37,
   18, 20, -29, -15, -9, -48, -14, 34,
   -50, -31, -61, -10, -5, -19, 12, 25,
   -9, 16, 36, -24, 31, 3, 9, 2,
   -128, -42, 107, 12, -51, 23, 21, -55,
   -81, -101, 99, -4, 34, -97, 21, -9,
   -25, -128, -49, -9, 26, -128, 7, 36,
   -50, 127, 20, -27, 33, 15, 95, -31,
   -91, -28, -29, 20, -30, -87, 33, 13,
   42, 111, -59, -66, -42, -1, -80, 61,
   9, -61, -46, 24, -69, -41, -48, 63,
   0, 8, -39, 83, -8, -39, -52, -34,
   10, -19, -25, 30, 53, -29, 5, -4,
   102, -128, 84, 59, -3, -128, -40, 91,
   127, -128, 102, -128, -107, -26, -53, 33,
   50, 8, 71, 92, -53, 97, 73, -89,
   -1, 76, -66, 45, 97, -20, -35, -8,
   -41, 10, 53, 83, -15, 47, -15, 41,
   0, -9, 53, 41, -23, 119, 33, -45,
   52, 84, 19, 27, -10, -32, -5, 14,
   -16, -20, -16, 3, 1, -3, 12, 45,
   23, 12, 12, 21, -29, -12, -24, 4,
   2, 127, -109, 15, -50, -76, 38, 10,
   116, 28, -25, -81, -33, 29, -48, -68,
   -9, 122, 69, 37, -21, 58, -65, -45,
   -48, -51, 1, 12, -48, 17, 3, -13,
   118, 10, 12, -68, -46, 39, 40, 8,
   -9, -91, 80, 23, 15, 63, 60, 4,
   -16, -40, -8, -8, -20, -36, 17, -30,
   -1, 33, 22, 16, 0, -26, -34, 20,
   -14, 5, -7, -18, 17, 8, 25, -29,
   -128, 127, 86, -91, 54, -19, -96, 103,
   -128, 119, 0, 73, 10, 127, 113, 125,
   127, 127, 1, 127, 12, 127, 123, 1,
   114, -23, -56, -54, 57, -120, 83, -2,
   127, -19, 127, 127, 8, 63, 64, 72,
   -23, 127, -120, -54, -64, 127, 6, -128,
   -29, 5, 42, -23, -83, -58, 78, -122,
   -16, 46, -10, -55, 11, -39, -71, 4,
   65, -44, -53, -43, 116, 13, 52, -60,
   -87, -76, 35, -4, -88, -23, 63, -81,
   78, -57, 8, -127, 16, -75, -4, -53,
   -95, -48, 48, 62, 8, 8, -125, 22,
   -29, 127, -3, 10, -78, 6, -42, 100,
   21, -50, 78, -61, -4, -94, -83, -93,
   -14, -3, 97, 52, 59, -46, 44, 41,
   82, 55, 67, 39, -17, -54, 73, -95,
   -24, 62, 12, -92, 36, 27, 87, 75,
   84, 51, -43, -45, 21, -54, 7, 5,
   74, 5, 11, 117, 127, -14, 72, -68,
   -77, 127, -28, -112, 14, 32, -42, -26,
   -55, 95, 41, -125, -64, 66, -36, 20,
   9, -74, -67, 20, 57, -116, -51, -14,
   76, 111, -9, -22, 93, -48, -25, 22,
   18, -7, -41, -17, 4, 110, -128, -128,
   -15, -79, -35, -2, -1, 59, -30, 29,
   -31, -9, 3, 22, -128, 8, -57, -52,
   -105, -14, 79, 97, -24, -9, -83, 26,
   16, 27, 25, -52, 26, -64, 54, 37,
   25, 7, 4, 16, -16, -62, -33, 127,
   46, -14, 91, -7, -70, -70, -33, 21,
   -76, -50, 72, -24, -4, 103, 25, -82,
   -12, 35, -50, 35, -37, 31, 8, 36,
   3, 105, 10, 32, 19, 104, 2, -18,
   -31, -42, -74, -2, -43, 12, 14, 60,
   22, 75, 36, 2, -29, -24, -54, -34,
   15, 20, -16, 28, -51, -36, -15, 54,
   -102, -64, -34, -39, -64, 101, -28, -19,
   42, 2, 1, 79, 24, 63, 93, -32,
   -98, 0, -24, 124, 82, 47, -86, 123,
   -10, 28, 127, -24, -92, -10, 26, -39,
   -108, 38, 127, -16, -4, -115, -3, 81,
   0, -28, -98, 60, -10, -128, 27, 17,
   20, -2, -87, -32, -128, -13, 61, 0,
   34, 32, 8, -52, 127, 13, 38, 57,
   -40, -20, -28, 25, 40, 99, 39, -5,
   -108, 9, -27, 30, 47, -89, 12, -77,
   90, -1, 77, -37, -45, -56, 36, -104,
   -65, 23, -71, -4, 50, -20, -71, -128,
   37, 127, -52, 96, 45, 7, 58, 52,
   55, -59, -12, 23, -88, -7, 44, -89,
   -22, 55, 57, 37, -45, 16, -4, 72,
   44, 42, 93, -54, 2, -82, 41, 23,
   -22, -9, -7, -27, 26, 24, 45, 74,
   52, 49, -51, -95, -10, 7, -39, -22,
   63, -128, -102, -45, -88, 45, -76, 3,
   -106, -94, -57, 9, 16, 22, -65, 34,
   -69, -96, -20, -107, 0, -108, -75, 43,
   107, -39, -116, 6, -128, -23, -69, 48,
   99, -30, 86, 0, 101, -63, -8, -93,
   9, -128, -107, -127, -115, -128, -89, 51,
   -56, 59, 63, -65, 21, -61, 2, 31,
   -38, -2, 54, -59, 55, 110, 99, 33,
   62, -35, -19, -66, 5, 98, 90, -57,
   4, 123, -55, 46, 37, 2, 19, -38,
   127, 3, 34, -31, -36, 49, -66, -82,
   -9, -108, 22, 25, 50, -89, -24, 78,
   65, -12, 57, 6, -20, -73, -15, 17,
   -21, -14, -27, 25, 43, -38, -20, 66,
   -29, -104, 58, 24, 70, 59, 48, 59,
   -2, 68, -8, -9, -6, 17, 25, 53,
   -24, 27, 1, 11, 10, -2, -59, -26,
   -8, 37, -36, 66, 43, -55, -72, 52,
   127, -42, -66, -56, -1, -85, 79, -128,
   95, -105, -26, -62, -128, 15, -91, -128,
   -128, -128, 45, -33, 34, -119, -103, -91,
   -35, -4, -36, 46, 54, 26, -17, 49,
   42, -12, 70, -87, -27, -92, 7, -57,
   -54, -101, 27, -120, 64, -106, -53, 127,
   -61, -48, -33, -58, -12, -21, 76, -51,
   -17, -13, 39, -82, 65, 101, 37, 53,
   40, -73, 5, 10, -16, 82, 5, 9,
   -97, -119, -29, 28, -62, 112, -56, -45,
   -128, 10, -128, 84, 127, -128, 92, -6,
   -103, -7, 83, -54, 37, 19, 36, 125,
   -72, -19, -17, -2, -93, -15, 23, 0,
   5, 2, -21, -70, -1, -97, -76, -46,
   24, -36, 7, -117, -41, -128, -87, -8,
   49, -29, 57, 28, -41, 2, 66, -50,
   -57, -63, -18, -30, 16, 57, 26, 27,
   25, 25, -1, 31, 28, 5, 87, 0,
   -74, 21, 74, 67, 56, -84, 110, -15,
   118, 22, 53, -52, -25, 48, 44, -23,
   -50, 34, 3, -25, 75, 20, -89, -44,
   40, 8, -45, 63, 11, 12, 57, 3,
   -60, -12, 36, 53, 14, -40, 17, -67,
   -4, 35, -34, -10, 44, 34, -45, -76,
   7, -6, -14, -7, -29, 63, 29, -46,
   37, 39, 5, -34, 9, 60, 45, 9,
   -27, -26, -28, 26, -5, 12, -31, -17,
   35, -108, 121, 1, 6, 14, 38, 73,
   -128, 80, 44, 126, 87, 4, 30, 73,
   71, -2, 49, 0, -31, 37, 0, 12,
   -55, -60, -48, 9, 7, 35, -7, -38,
   -102, -20, 22, 71, 54, -14, 12, -68,
   20, 80, -29, 3, -63, 7, -57, -63,
   -38, -48, 22, -62, 23, -26, 2, -13,
   47, -33, 22, -21, 31, -17, -68, -40,
   -1, -1, -34, 60, 34, -38, -1, 1,
   121, -54, 127, 44, 15, 84, 76, -34,
   -22, 127, 63, 127, 127, 5, 91, 113,
   116, 127, 9, 10, -27, 127, 127, 37,
   -115, 51, -13, -101, -16, -99, 20, -98,
   15, 127, 17, 124, -92, 36, -46, -38,
   -33, 127, -92, 87, -82, 97, 53, -128,
   35, -128, -47, 22, 101, 59, 12, -17,
   -19, 47, -34, 61, -128, -101, -51, -50,
   -53, 112, -1, 25, 13, -28, -34, 60,
   70, -62, -31, 80, 36, -4, -16, -11,
   127, 90, 127, -22, -63, -27, -33, -63,
   -127, -3, 40, -107, 5, 127, 47, -61,
   -73, 94, -83, 65, 39, -104, -19, -84,
   -104, 127, -53, -86, 61, -128, -22, 56,
   -25, 107, -87, 47, -20, -105, 66, 78,
   37, -128, -127, -17, 51, 21, -25, 47,
   36, 80, -14, 83, -22, 42, -40, -77,
   -98, 84, 2, 99, -14, -9, -23, 126,
   -52, -109, 26, -5, -100, 122, 113, -1,
   -128, 48, -28, 14, 127, 29, -38, 127,
   71, 90, -61, -38, 127, 106, -61, -19,
   -32, 54, -2, 52, -31, -2, 26, -7,
   -5, -75, -22, 55, -22, 34, -75, -26,
   19, 127, -48, -32, 38, -52, -86, 73,
   14, -36, 18, -76, -10, -32, 22, -53,
   -38, -53, 0, -69, 40, 2, 42, 94,
   52, -42, -67, -40, 68, 58, 75, -40,
   127, -45, -128, 85, 41, -128, -49, -128,
   113, 127, -128, -69, -120, -128, -128, -52,
   -128, -72, -63, -128, -5, -82, -128, -19,
   88, -81, -128, -44, 59, 12, -112, 2,
   127, -110, -71, -85, -70, -23, -106, -12,
   -33, -112, -9, -128, 63, -34, 0, -128,
   -26, 37, 121, 3, -12, -70, 42, 31,
   -6, -127, 0, -23, 15, 69, 26, 50,
   69, -128, 82, -60, 63, 48, 127, 0,
   -98, 127, 26, -30, 43, -30, -117, 36,
   -2, 127, -13, 127, 49, 111, 30, 76,
   46, 127, 36, 127, -128, 127, 120, 37,
   -69, 32, 127, -88, 43, -69, 7, -77,
   -81, -10, 81, 16, 43, -75, -14, 11,
   17, 49, 19, 8, 5, 60, 127, 28,
   56, -28, 34, 7, -31, 14, 17, -96,
   58, -26, 3, 7, -60, -37, 0, 3,
   -41, 9, -27, -8, -38, -7, -12, -49
};

static const rnn_weight vad_gru_recurrent_weights[1728] = {
   40, -128, -87, 0, 10, -39, -10, -125,
   127, -128, 127, -128, -127, 5, 36, -27,
   -128, -128, 16, 29, -11, -128, 17, -128,
   13, 121, -107, 29, -53, 126, -45, 9,
   36, -107, -16, -128, 108, -27, -72, -102,
   2, -73, 90, -39, 37, -128, 41, 37,
   80, 48, 34, -7, -89, -58, 19, 30,
   49, -93, 69, -128, 100, 106, 127, 127,
   105, -15, -40, -25, 61, 88, 54, -70,
   127, 43, -120, -54, -128, -24, -36, -128,
   124, -53, 105, -127, -128, -32, -26, -74,
   -108, -128, -55, -113, -55, -121, -82, -128,
   110, -67, -69, 62, -102, 71, -25, 36,
   -18, -48, -40, -64, 28, -18, 39, 46,
   2, -76, 16, 7, -36, -94, -7, -1,
   36, 116, 81, -110, -106, -128, 101, -83,
   -25, -123, -20, -117, 127, 80, 120, 127,
   92, -51, 4, -46, 42, 127, 60, -85,
   -50, 16, 16, -66, -37, -4, -28, -46,
   8, 117, -60, 39, 99, -43, -17, 16,
   8, 127, -20, -120, 36, 101, 28, 84,
   21, -30, -32, 4, -14, 8, -33, 28,
   70, 10, 24, -49, -73, -99, -82, 1,
   -1, 0, 70, -19, 6, 38, 53, -61,
   30, 65, 117, -2, -58, -47, 84, -36,
   13, -128, 127, -35, 87, 117, 126, 125,
   75, -70, -4, -105, 117, 127, 82, -38,
   -93, -128, -81, -90, -128, -128, 21, 48,
   -42, -74, 80, -128, -106, -126, 70, -126,
   -128, -64, -116, -128, -127, -49, -128, -120,
   -75, -27, -53, -61, -47, 69, 51, 53,
   -30, -25, -76, -40, -62, -7, 11, -15,
   -37, -49, -1, -39, -14, -128, -107, -93,
   60, -24, 8, 15, -18, 47, -50, 6,
   127, -21, 57, -32, -35, 82, 127, 33,
   45, -72, -100, -5, 113, 52, 106, -128,
   -51, 15, -128, 126, -52, -122, -22, 88,
   -45, -30, -76, -18, 14, -128, -67, -74,
   -63, -42, -48, -128, -17, -107, -99, -77,
   -61, 14, -36, -6, -21, 24, -10, 66,
   97, -29, -12, 10, -42, -25, 14, -5,
   -4, -68, 127, -53, 1, 24, -30, 122,
   -25, -6, -57, -11, 105, 54, -96, 37,
   30, 39, -27, 100, -94, 23, 58, -106,
   -104, 22, 53, 29, -81, -28, -40, 43,
   -42, -74, -36, 22, -127, -11, -31, -5,
   28, 19, -27, -92, 8, -67, -66, -57,
   -48, -35, -71, -125, -111, -29, -69, -94,
   6, -106, -58, -14, 25, -73, -40, 20,
   -6, -57, 7, -26, 6, -76, -31, -40,
   -14, -73, -76, -18, -71, -103, -14, -30,
   -36, -7, 48, -21, -55, -4, -84, -73,
   -22, -55, -32, -9, 49, -38, 9, 88,
   42, -52, 20, 54, 29, 63, 127, -8,
   -10, 67, 23, -127, 127, 76, -45, -78,
   18, 124, -37, 41, -52, 127, 93, 127,
   28, 127, 86, 127, 51, 127, 127, 21,
   6, 89, 47, -43, 83, -20, -2, -10,
   -88, 24, 15, 15, 51, -45, -72, -10,
   2, 63, -125, 3, 9, 37, 40, -47,
   -43, -7, -58, -99, 57, -10, 90, -79,
   32, -63, -76, -96, 8, 19, -40, 59,
   -27, 10, 40, -16, -3, -4, -28, 81,
   127, -73, -23, 127, -56, -69, 78, 2,
   127, -128, 58, -116, -120, 67, -109, -51,
   -42, -128, 127, -96, -55, -128, -67, -6,
   74, 51, -32, 45, 64, 3, -25, -13,
   77, -5, -26, -90, 23, 57, 13, 18,
   52, -30, 56, 126, 3, 64, 4, 125,
   5, 37, 2, -12, -6, -15, 26, 77,
   41, -59, 49, -46, 68, 32, 76, 127,
   56, -40, -29, -15, -78, 127, 17, -62,
   27, -128, 70, -128, -116, 116, 71, 45,
   -128, -128, 45, -125, 98, 43, 127, 78,
   30, 24, -128, -8, -128, 104, -128, -128,
   13, 79, 108, 17, -128, 127, 127, 68,
   -85, -76, -8, -128, 84, 80, 74, -128,
   27, -53, -28, -76, -89, -128, -52, 38,
   114, 44, 4, 20, -128, -106, 57, 41,
   127, -128, 8, -128, 127, 127, 127, 127,
   85, -128, -128, -127, 83, 127, 127, -128,
   -53, -74, -90, -23, -67, -128, -103, -61,
   34, -71, 112, -128, -112, -117, -86, -128,
   -87, -67, -34, -56, 27, -128, -128, -79,
   -6, -41, -8, 66, 17, 22, -2, -69,
   -45, -33, 22, 12, 27, 54, 20, -26,
   -13, -50, -36, 67, 40, -29, -47, 6,
   66, -14, -42, 103, 25, 127, -73, 69,
   65, 105, -9, 74, -44, 13, 42, -128,
   -86, 38, -83, 42, -85, -96, -88, 39,
   107, -128, -123, -41, 39, -117, 127, 37,
   127, -68, 109, -76, -90, -128, -128, -49,
   -128, -128, -89, -128, -128, -128, 5, -38,
   -34, 72, -82, 24, 8, -11, -34, 42,
   110, 37, -32, -18, -2, -14, -85, 15,
   -38, -67, 22, -75, -54, 45, -106, 22,
   95, 127, 127, 36, 23, -45, -112, 33,
   39, -35, 127, -104, 12, 127, 127, 100,
   117, -107, 19, -51, 54, 26, 17, -56,
   -123, -74, 94, -19, 42, -19, 7, -9,
   54, -9, 109, -71, -57, -88, -19, 5,
   70, 24, 39, 62, 10, 67, -47, -26,
   83, 26, 35, -32, 46, 2, -45, -51,
   46, 44, 9, 25, -9, 66, 42, 38,
   5, -1, 39, -43, -48, -13, -26, 31,
   64, 34, -66, -3, 68, 75, -19, 46,
   16, 13, 21, 112, -70, -15, -42, -73,
   -57, 105, -11, 48, 6, -119, -58, 37,
   -1, 9, -18, -65, -42, -9, 34, 52,
   51, -70, -42, 39, 26, 71, 0, -46,
   7, -77, 28, 64, 16, -52, 80, 60,
   32, -21, 22, 36, -7, -40, 38, -21,
   -25, 16, 23, -14, 48, -33, 92, 98,
   -21, -51, 38, 13, -21, -9, 33, 68,
   -23, -60, -106, 17, 25, -15, 46, -4,
   33, 40, -52, 127, 52, -41, -48, -82,
   -32, -13, -2, 54, -14, -67, -69, 112,
   107, -47, -128, 13, 12, 68, 96, 80,
   78, -128, -74, -60, -37, 16, -105, -113,
   -128, -128, 27, -128, -42, -128, -37, 69,
   -35, -76, -2, -44, 19, 13, -46, -8,
   60, -29, -9, -74, 52, 22, -5, -10,
   -31, -41, 85, -32, 69, -10, 73, 71,
   19, -60, 120, 26, 12, -69, -9, -21,
   48, 48, 115, -128, 103, 71, 63, 88,
   127, -57, 55, -23, -18, 46, 21, -70,
   75, -128, -128, -9, -128, -84, 49, -14,
   -1, -128, -99, 6, -31, -105, -123, -70,
   -128, -128, -9, -128, -9, -128, -104, 79,
   11, 9, -32, -50, -15, 18, -36, -13,
   11, -45, -22, -63, -21, -19, 40, -48,
   46, 5, 127, -30, 63, -18, 25, 108,
   17, 34, 91, -16, -78, -121, -31, 11,
   -57, -24, 86, -56, 127, 112, 113, 58,
   87, -84, 68, -34, 71, 89, 10, -59,
   -81, -38, -5, 19, -36, 121, 9, -52,
   -39, 31, -97, 37, 101, 98, 62, -71,
   -7, 94, -38, 5, 7, 44, 67, -10,
   -87, 14, 24, 4, 3, 25, 4, 75,
   -40, 6, -57, -42, -10, -1, 22, 23,
   -58, 54, -15, -49, 7, -14, 50, 29,
   20, 80, -7, -33, -27, -46, 66, 31,
   -56, -59, 49, -55, 95, 13, 50, 74,
   37, -79, -34, -43, 12, 8, -7, 14,
   -34, 11, -7, -48, -50, 16, 66, -6,
   11, -18, -46, 12, 28, 3, 22, -58,
   1, 19, -17, -50, 4, 63, -12, 66,
   -32, 8, -40, -1, 16, 47, 27, 83,
   64, -24, -51, -12, -29, -74, -26, 11,
   74, 17, 8, -4, -56, 25, 41, -63,
   72, -11, 29, 66, 45, -34, 37, 42,
   -22, 7, 52, -36, 18, 24, 53, 27,
   21, 13, -19, -5, 12, -52, -6, 9,
   -77, -11, 26, -5, -44, 52, -84, 35,
   52, -121, 121, -83, -123, -72, -23, -68,
   -67, -81, 2, 8, 51, -29, -33, -27,
   -54, 85, 12, 89, -24, 7, -46, 17,
   39, 57, 7, -18, -58, 20, 26, -54,
   -1, -18, 33, 31, -12, -22, -24, 86,
   65, -1, -106, 68, 62, 111, -32, 10,
   -12, 92, -78, 127, -99, -128, -89, -128,
   -58, 49, -3, 100, -104, -98, -56, -70,
   53, 127, -28, 127, 79, -72, -40, 127,
   89, 8, -42, 44, -88, -9, -128, -78,
   9, 109, 109, 41, -85, 38, 127, 118,
   -36, -114, 29, 59, 123, -42, -85, -25,
   -42, 121, -23, 7, 40, -7, -128, 19,
   33, -47, 30, -25, 71, 127, 81, -61,
   -94, -111, -4, 47, 127, 127, -97, 1,
   10, 127, -36, 97, -128, -127, -99, -128,
   -87, 100, 119, 127, -103, -128, -103, 117,
   -37, -114, 20, 74, -8, -128, -32, 94,
   41, -128, 80, -78, -127, -11, -2, -98,
   -61, -128, -29, -66, -128, -79, -85, -120,
   -26, -111, -38, 22, -9, -25, -41, -118,
   -117, -8, 57, -24, -6, 10, -6, 12,
   10, 36, -90, 23, 3, -9, -24, -17,
   -14, -47, -128, 20, 106, 80, -71, 41,
   -30, 109, -53, 36, -93, -45, -56, -128,
   -127, 54, 42, 23, -95, -89, -20, 48,
   32, -6, 95, -81, 29, 127, 105, 68,
   -76, 94, 9, 66, 127, 2, 127, 127,
   70, 113, 53, 127, 103, 127, 127, 17,
   -12, -42, 42, -115, -21, 46, -61, 2,
   -73, 43, 41, -34, 0, 14, 11, 38,
   19, 118, -127, -29, 8, 24, 4, -128,
   33, 9, 4, 79, -103, -107, 108, 59,
   79, -66, 89, -12, 13, -39, 13, 68,
   42, 51, -38, -73, 71, 49, 20, 21,
   3, -10, 13, -6, 9, 127, 117, 21,
   -32, 127, -98, 127, 127, 127, 72, 127,
   81, 127, -30, 12, 87, 101, 82, 59,
   23, 21, 97, -12, -22, -32, 37, 3,
   29, -30, -10, 3, -9, -43, 1, 41,
   -27, 46, 19, 14, 19, 28, -55, -16,
   1, -14, 127, -43, -127, -128, 117, -49,
   -14, -71, 82, -90, 127, 102, 54, 127,
   127, -95, 1, -102, -2, 88, 127, -7,
   -24, 35, 33, -58, 7, 125, 60, 39,
   -128, 127, -80, 127, 127, 123, 108, 127,
   36, 127, -51, 15, 96, 105, 124, 36,
   40, -1, 14, -44, -60, -1, -22, 1,
   -42, -2, 22, -27, 26, 6, -17, -13,
   32, 59, -104, -21, -24, -71, -6, -32,
   99, 10, 71, -86, -23, -85, 44, 22,
   46, 3, 29, -99, 58, 54, 67, 81,
   87, -125, -15, -38, 46, 111, 24, 34,
   -1, 101, 45, -10, 127, 62, -19, 127,
   -4, 106, -38, 64, 114, -20, -128, 23,
   53, 127, 3, 84, 49, 127, 127, 16,
   31, -29, 99, 127, 60, -128, 20, -30,
   25, 127, -126, 29, 86, -32, -29, -11,
   -64, 82, -19, 50, -30, 79, -3, 4,
   -10, -87, -103, 110, 127, 127, -97, 12,
   -27, 127, -59, 55, -40, -50, -32, -128,
   -122, 73, 23, 111, -114, -108, -86, 101
};

static const rnn_weight vad_gru_bias[72] = {
   123, -91, -57, 97, -44, -127, -23, -26,
   127, -125, 116, -128, -128, -35, -47, -128,
   -94, -128, 84, -79, -7, -128, -124, -128,
   86, 77, 34, 102, 37, 2, 29, 10,
   64, 44, 50, 29, 13, 27, 37, 16,
   -13, 38, 68, 62, 15, 98, 16, 69,
   -5, 21, -22, 13, -2, 15, -16, 29,
   -17, 28, -11, 17, -20, -12, -13, -25,
   -7, 47, 15, 41, -15, -35, -89, 16
};

const GRULayer vad_gru = {
   vad_gru_bias,
   vad_gru_weights,
   vad_gru_recurrent_weights,
   24, 24.0, ACTIVATION_TANH
};

static const rnn_weight noise_gru_weights[12384] = {
   57, -32, -29, 48, -30, 20, 65, -50,
   -47, 9, 17, 21, 7, 27, 26, -5,
   -26, 55, 33, 9, -63, 58, 2, 8,
   -31, 9, -43, 25, 10, -18, 12, 8,
   -33, 26, 77, -23, 3, 50, 39, -85,
   22, 115, 118, -5, -1, 95, 3, 5,
   30, -27, 18, 15, 51, 3, -28, -8,
   -29, -31, 102, -49, 28, 44, 48, 38,
   -26, 26, 21, 0, 42, 18, 3, -70,
   -8, 58, 2, -15, -23, 17, -21, 49,
   -31, -78, 1, 0, 12, 28, -67, 30,
   -12, 29, 31, 31, 26, 30, 24, -50,
   -13, -15, 21, 76, 52, -37, 1, 10,
   -34, 21, -13, -20, 22, 46, 1, 1,
   -9, 37, 6, 28, -36, 27, 31, -17,
   30, 22, -12, 30, 22, -33, 15, -33,
   -11, -19, 18, -30, -11, -65, 5, 3,
   14, -8, -10, 12, -6, 26, -24, 18,
   -8, -19, 45, 34, -50, 96, -83, -36,
   -13, 24, 10, -26, -11, 25, 1, 18,
   5, -63, -13, -39, -48, 70, 61, -7,
   16, 22, 5, -89, 40, 30, -96, 64,
   4, -16, -20, -42, -49, 23, 12, -128,
   27, -71, -73, 96, 48, 127, 15, -42,
   29, 3, 50, 46, 21, -28, -1, -5,
   -61, -14, -41, -6, 23, -30, 23, 23,
   -12, -4, -19, 6, -24, -15, 29, 66,
   -25, -6, 65, 69, 22, 40, -28, 28,
   12, -26, 26, 26, 25, -49, 2, -35,
   10, 21, 5, 61, -24, -7, -60, -20,
   12, -16, -21, 18, -21, 16, 14, -30,
   -33, 4, 3, -34, 25, -9, -46, -26,
   64, 51, 29, -14, 26, -45, -36, -16,
   31, -30, -26, 25, 32, -20, 41, -9,
   14, -15, 26, 29, 20, -36, -23, -3,
   35, -23, 10, -21, -17, 39, 8, 46,
   10, -3, -97, -74, -16, -39, 33, -36,
   50, 28, 0, -8, -41, 62, 56, -43,
   111, -71, 17, 44, 5, -5, 59, 51,
   26, 19, -56, -12, -8, 3, 53, -50,
   24, 20, 84, -13, -57, 11, 32, 0,
   -34, 16, 89, -21, -27, -1, -17, -22,
   11, 31, 17, 11, 11, 8, -46, -36,
   10, 10, -44, -45, -10, -18, -15, -35,
   16, 9, 42, -29, 46, -3, 37, 45,
   -1, -43, 48, 3, 18, -21, -83, -1,
   3, 30, -38, 8, -38, -14, -50, -63,
   73, -23, -26, -50, 19, -53, 40, 8,
   -32, -1, -19, 13, 28, 3, -17, 0,
   9, -31, 38, 44, -18, 53, -62, -19,
   27, -37, 36, 0, -7, -28, -9, 33,
   12, 45, 26, 36, -16, 5, 24, 10,
   -14, 7, -44, -39, 10, 22, -42, -10,
   -19, -19, 9, 30, 40, -31, 13, -17,
   -108, 64, 6, 57, -2, -5, 8, -17,
   6, -17, -7, 3, 17, 42, 4, 29,
   25, -11, 27, 10, 32, -12, 5, -41,
   24, 34, 0, -18, 52, 5, 32, 24,
   17, -17, 9, -5, -48, -32, 4, -24,
   -15, -3, -2, -28, -4, -9, -1, 26,
   10, -34, 7, 57, 0, -7, -31, -48,
   -1, 69, 22, -12, -8, 22, -4, -38,
   7, 1, 40, -38, -7, 0, 19, 1,
   14, 2, 30, -48, -27, -45, 19, -25,
   -38, 65, 2, 10, -101, 9, 1, 60,
   6, 14, -13, 32, 45, 34, 19, -15,
   1, -3, -12, 22, -12, 3, -36, -33,
   -15, 30, 9, -5, 31, 17, 18, 38,
   26, 50, 9, 54, 23, 46, 11, -38,
   28, 43, -3, 22, 2, 6, -32, 28,
   11, -9, -33, -3, -32, 11, 5, -1,
   9, -4, -5, 13, 15, 0, -36, -19,
   -20, 34, 13, 27, 34, 35, 37, 13,
   47, 32, -13, 36, -1, 51, -25, 53,
   -2, -28, 44, 23, -16, 42, 7, 15,
   0, 62, -4, 23, 6, 21, -16, 32,
   35, 19, -2, 46, 10, -13, -53, 40,
   -6, -41, 40, 30, 1, -38, -34, 16,
   15, -2, -25, 32, 9, -39, 2, -4,
   -10, 15, 2, -18, -1, 9, -59, -19,
   -40, 35, 38, 12, 33, -4, 57, -39,
   -15, -51, 13, 0, 50, 16, 4, 10,
   16, -9, 23, -53, -18, 66, -28, -116,
   -26, -35, -8, -93, -16, 39, 46, 25,
   -19, 26, -5, -6, -9, -32, -30, 15,
   -39, -19, -26, -50, -18, -18, -30, 33,
   -13, 16, 30, 18, 1, -15, 22, 6,
   -22, 14, -26, 22, -3, 19, 23, 25,
   -34, -22, -28, 11, 7, 5, 31, -35,
   -3, -32, -10, 19, 13, -17, 5, 28,
   -36, -60, -17, -39, -40, 12, -16, -49,
   -12, 9, 31, 3, 50, 5, -35, -27,
   -25, 0, 31, 3, -8, -8, -24, -33,
   0, -13, 41, 66, 48, -28, -31, 17,
   -54, -16, -38, 41, -62, -31, 9, 10,
   -54, -8, 14, -7, 2, 65, 13, 14,
   -18, -9, -33, 0, 57, -16, -23, -6,
   18, 32, -5, 40, 15, 30, -41, -4,
   0, 32, 14, -4, 31, 26, -8, 1,
   25, -16, 3, -10, -20, 22, -7, 0,
   41, 12, -36, 51, 6, -13, -53, -4,
   33, 16, 34, -14, -11, -18, -21, 23,
   -13, -11, -28, 20, 23, 25, 3, -21,
   34, 12, -24, -24, 8, -7, -1, 28,
   -21, -17, 5, 31, -3, -14, 8, 15,
   8, 12, -21, 27, 26, 4, 11, -15,
   9, 33, 11, -37, -19, -30, 0, 27,
   18, 23, 17, 29, 37, 12, 7, -45,
   -31, -18, -43, -7, -27, 61, 2, 103,
   -13, -27, -6, -16, 38, -40, 60, -29,
   36, -13, -47, 37, 32, -2, -36, 28,
   -13, -8, 24, 56, 19, -41, -89, -20,
   -20, -33, 15, -8, 37, -30, 60, 5,
   -12, 17, -3, 25, 15, 19, 10, -28,
   1, 17, 31, -60, 10, -32, 12, 11,
   22, -63, -30, -18, 38, 58, 31, -3,
   -11, -25, -9, -21, 5, 24, -16, 8,
   45, 38, -21, 19, 36, 9, 30, -23,
   -33, -42, -48, -14, 33, 1, 19, 9,
   1, -8, -35, -35, 5, -22, -29, 28,
   -29, 8, -9, -3, 21, 20, 3, 5,
   18, 2, 26, -26, 34, 22, 17, -22,
   25, -9, 11, -21, 5, 18, -13, 7,
   25, 21, -34, 6, 8, 7, 1, 4,
   6, -14, -18, 19, -4, 31, -15, 17,
   32, -16, 29, 32, -1, -65, 17, -8,
   37, 12, 46, 15, 15, -7, -33, -11,
   4, 23, -25, 48, -65, 43, 21, 7,
   -20, -26, 7, -95, -58, -14, -45, 30,
   -61, -3, 14, 40, 28, 40, -51, 91,
   -19, 8, -19, -5, -70, 31, -16, 15,
   -41, 27, -50, 9, -1, 116, 32, 59,
   32, 12, -6, 62, 62, -5, 9, -48,
   -36, -76, 63, -40, 1, 52, 8, 21,
   69, -27, 26, -50, -11, -36, 11, 13,
   -2, -12, 45, -12, -103, 34, -74, -6,
   13, -30, 42, 24, 42, 48, -8, 0,
   13, 17, -61, 74, -8, 32, -4, 54,
   9, 57, 26, 68, -31, -8, -22, -29,
   19, 7, 16, -33, 41, -11, -16, 4,
   70, 17, -10, 17, 37, 27, -47, 22,
   -45, -23, -32, -8, -8, 15, -36, 47,
   22, -41, 43, -58, 43, -3, -2, -45,
   10, -22, 34, -10, -22, -18, 17, 20,
   -38, 7, 27, -43, -28, -51, 36, -10,
   -8, 14, 33, 5, -22, -11, -11, 3,
   -10, 17, 20, -3, -27, -54, 21, -87,
   8, 25, 9, -73, -27, 51, 17, 51,
   -37, -17, -18, -3, -24, 19, 50, -13,
   -10, 29, 74, 38, -3, -49, -13, 15,
   -82, 22, 3, 1, 42, 27, -9, -41,
   -19, 37, 63, 65, 38, 32, -10, -15,
   17, 35, -33, 51, 45, -20, -19, -2,
   -39, 11, -16, 15, -19, 40, 52, 29,
   27, 4, 22, 28, 52, 3, 47, 25,
   -51, -18, 4, -5, 81, -25, -44, 9,
   17, -34, -8, 12, -41, 24, -20, -13,
   -18, -30, 6, 18, -24, 13, 15, 48,
   -18, 4, 30, -11, 35, 2, 6, 1,
   -16, 12, -18, 24, -21, -31, -7, 35,
   22, -53, 20, -26, -32, 3, 25, 15,
   -21, 22, -27, 21, -37, 25, 20, 14,
   -78, 55, 99, -20, 63, -16, 90, 48,
   16, 34, 89, 23, -3, 28, -21, 57,
   52, -2, 31, 77, 83, -20, -3, 17,
   48, -6, -19, -14, -34, 7, 0, -50,
   42, -20, 52, 28, -29, -36, -5, 32,
   -45, 51, 48, -5, -23, 4, -29, 26,
   11, -58, 2, 37, -26, 19, -24, 39,
   36, 0, -65, 21, -36, 90, -15, -39,
   -13, -18, -6, 10, 5, -14, 22, -9,
   -3, 18, 12, -23, 40, 22, 90, -3,
   9, 54, -44, -49, -17, 22, -3, 62,
   -21, -56, 25, -21, -23, -54, 33, 38,
   26, 6, 5, -25, 26, -8, -15, -31,
   24, -39, 18, 34, -1, -1, 12, -56,
   -35, -63, -36, -43, -28, -11, 3, -6,
   34, 21, -40, 11, -12, 21, 35, -28,
   14, -35, 3, -49, -30, 25, 16, 31,
   -1, -42, -7, 19, 14, -23, -5, -42,
   -8, 43, -6, 11, 10, -1, 52, -17,
   -30, 31, -40, -11, 43, -39, 11, -57,
   5, 15, 2, 75, 43, 72, -40, 65,
   -64, 9, -1, 6, 42, 11, 70, 15,
   13, -38, -47, 32, 15, -37, 26, -9,
   -39, -8, 34, 20, 17, 21, -68, 5,
   30, 16, 46, 26, -11, 0, -30, 57,
   18, 48, 62, 15, 4, 19, -8, -20,
   2, 9, -12, -34, 31, -29, 52, 19,
   6, 18, 37, -23, -45, 34, -6, 43,
   -12, 50, -13, 40, 16, 19, -30, 78,
   47, 3, -9, 42, -42, 5, -7, 64,
   23, -42, 11, -20, -22, -6, -33, -36,
   -6, -22, -26, 11, -5, 19, 21, -29,
   -27, -24, -3, -21, 13, -1, -21, -43,
   -38, 53, 10, -23, 33, 10, 3, -25,
   0, -3, -31, -11, 13, -45, -11, 27,
   28, 2, 4, -34, -8, 8, 3, 17,
   33, -42, -30, -5, 19, -63, 1, 40,
   -14, 23, -27, 23, 22, 61, 8, 5,
   -70, 20, -4, -92, -35, -57, 60, -39,
   17, 62, -56, 19, -59, 43, 25, -4,
   -46, 23, -82, -19, 29, 6, 24, 30,
   83, -18, -37, -31, -16, 31, -1, 14,
   -23, 27, 28, -2, 22, 28, 11, -24,
   -32, 42, 12, 12, -34, 6, -20, -20,
   42, 44, -28, 39, 18, 3, -8, 26,
   36, -17, 39, 34, 14, -2, -3, -36,
   -4, -38, 20, 16, 9, 22, 26, -69,
   -23, -4, -27, 12, 17, 94, 4, 24,
   -39, -12, 3, 9, -40, 23, 28, -35,
   2, 13, 25, 2, 9, -44, 7, 1,
   -9, -17, 59, -2, -19, -12, -28, 30,
   -53, -48, 29, -25, 22, -39, 7, 32,
   -2, -27, 17, 36, -3, -19, 0, -20,
   -49, 3, 15, -21, 14, 12, 1, -31,
   -27, -31, -8, -39, -4, 43, 53, -19,
   6, -13, 8, -64, 16, 25, -28, 1,
   -22, -25, 62, 24, -63, 8, 1, -91,
   4, 8, -7, -12, -35, 27, -52, 10,
   -13, -57, -12, 12, 1, 25, 42, -25,
   46, 18, 47, -2, -1, -24, -32, -70,
   4, 42, -37, 50, -21, -22, 33, 48,
   27, 10, -30, 13, -13, -18, -41, -15,
   -48, 3, -33, -18, 4, 32, 26, -81,
   52, 15, 11, 54, 46, 40, -73, 25,
   30, 14, -5, 22, -27, 41, -33, -35,
   6, -36, 28, -7, 39, 22, -5, -21,
   35, -29, -5, -8, 13, 16, -6, 20,
   28, 11, 58, -5, -26, 57, 45, 17,
   -23, 22, 21, 27, 44, 41, -17, 9,
   -1, 4, -7, 35, -23, -25, 26, -27,
   -8, 16, -38, -11, -4, -1, 11, -9,
   -30, -30, 10, 27, 21, 3, 12, -6,
   42, -22, -46, -20, 121, -21, 35, 7,
   -38, -5, 10, -50, -12, -23, -13, 45,
   18, -20, -6, -26, -128, -17, -33, -80,
   19, -48, -22, 74, -45, -3, 37, 11,
   -23, -3, 3, 30, 3, 16, 2, -63,
   87, -25, -15, -36, 13, -22, 13, -38,
   18, -17, 47, 36, 41, -10, -35, -16,
   -41, -66, -16, -3, -32, -30, -32, -18,
   -30, -16, -23, -6, -35, 0, 13, 42,
   5, 13, -40, 58, 26, -11, -43, -17,
   -33, 28, 73, 28, -5, 15, 4, -64,
   20, -14, -5, -50, -37, 14, -23, 21,
   7, 8, 6, 56, 11, 8, 1, 0,
   -10, -3, 12, 15, 32, -61, 7, -30,
   80, 82, 31, 2, 61, -43, -1, 3,
   -28, 71, -40, 30, -31, -32, -54, 8,
   -20, -10, 24, 63, -34, 9, 24, -23,
   -12, -11, -18, -22, 15, -2, -27, 29,
   -6, -3, -74, 25, 8, -6, -16, -3,
   -21, 17, 15, -6, -4, 21, -23, -5,
   34, -20, 3, 32, 19, -13, -53, 29,
   -44, -4, 7, -38, 33, 29, -7, -38,
   -9, 40, 33, 0, 13, 7, -14, 4,
   -6, -11, -62, 58, -6, -27, 36, -26,
   53, 6, -35, -45, -22, 25, 42, -3,
   24, -47, 12, -20, 3, -30, 32, 37,
   41, -2, 27, 49, 0, -13, -17, -41,
   29, 28, -5, 9, -8, 34, 46, -17,
   -41, -20, -19, -15, 72, -36, -9, -14,
   -19, 0, -2, -23, -26, 17, -12, -42,
   -17, 25, 45, -29, 21, -32, 25, -14,
   -12, 20, 33, -32, 39, 11, -6, -12,
   -5, -31, 48, -41, -51, -7, -17, 40,
   -3, -23, -37, 7, -35, -33, -17, -35,
   55, -31, 45, -22, 20, 32, 6, 24,
   32, 6, 0, 31, 19, -10, -26, 33,
   3, -19, -70, -6, 21, -40, -15, -4,
   3, -21, -75, -46, -12, -52, 56, -24,
   4, -103, -3, 42, -26, -25, 42, -69,
   -22, -4, 31, 29, -37, 1, 17, -28,
   5, -2, 59, -4, 17, -6, -26, -38,
   13, 1, 69, -54, -20, -24, 11, -12,
   1, -5, -14, 18, 18, 26, 26, -1,
   -50, 65, -66, 104, -65, -16, 31, 47,
   -54, -2, -26, 29, -18, -75, -1, -34,
   -39, -24, -17, 3, 96, 25, 8, 63,
   61, 14, 35, -4, -23, -24, -21, -125,
   -62, 31, 1, -7, -30, 29, -2, -20,
   19, -7, -3, 18, 11, -43, 13, 7,
   -4, 7, 4, -53, -21, -35, -18, 26,
   14, 26, 20, -31, 16, -29, -13, 70,
   24, 16, 55, 29, 22, 18, 31, 49,
   21, -21, 40, -32, -35, 8, -20, -29,
   -8, 8, 39, -1, 29, 37, 13, 23,
   -22, -3, 28, 63, 12, -8, -3, 2,
   -58, 40, -108, -18, -35, 37, -10, 63,
   -87, -19, -9, -25, -29, -23, -17, -14,
   -6, 81, -64, 86, -17, -70, 30, 47,
   34, 37, -57, -31, 34, -14, -28, 26,
   18, -52, -12, 20, -40, 102, 40, 12,
   36, 1, 17, 77, -3, -25, 30, -40,
   -3, -23, 2, 40, 10, -30, -12, 4,
   -23, -14, -50, -18, -9, 38, 10, 17,
   -3, 3, 73, -41, -4, 50, 49, -34,
   -25, -25, 55, 13, 1, -61, 1, 26,
   -14, 18, 21, 56, -40, 58, 9, 92,
   34, 31, -19, -28, -7, -6, -27, -23,
   -5, 27, -25, -10, -12, -42, -13, -57,
   -2, 41, -26, 1, 41, -59, 33, -21,
   -26, 32, -50, 25, 14, -27, 10, 22,
   -7, 10, -3, 51, -20, -16, 23, 12,
   -52, -27, -14, -24, 2, -51, 14, 27,
   18, 25, 4, -14, 15, -16, 10, -44,
   -17, -19, 20, -39, 37, -10, -10, -39,
   -20, 23, 20, -20, 13, 25, -15, -59,
   19, -20, 7, 18, -54, 24, -51, -1,
   -40, -26, -14, 14, 2, -5, -24, 33,
   -16, 5, 26, -56, 1, 89, -60, -13,
   -15, 27, -53, 70, 25, 32, 36, -46,
   -23, 67, -27, 13, 22, 2, 10, 30,
   11, -34, 4, 20, 13, 16, 66, -94,
   5, -11, -1, 2, 22, -2, -9, -7,
   13, 15, 18, 18, -95, 24, -38, 9,
   40, -18, 2, 49, 5, -42, 39, 71,
   23, -20, -10, -20, 7, -19, 1, -11,
   16, -35, -38, -27, 17, 25, -18, 3,
   10, -9, 1, 47, 38, -23, 28, -5,
   -21, 16, -18, 12, 34, 9, -16, -9,
   -23, -9, 24, 4, -4, -25, -45, 33,
   -5, -12, 5, 18, 19, -37, -14, 3,
   -33, -2, 50, 10, 0, -55, -45, 11,
   -29, -16, -21, 2, 4, 23, -6, 29,
   -21, 15, 10, -23, -12, -25, -13, -35,
   50, 42, -29, 28, -52, -12, 32, 1,
   -12, -43, -37, 31, -4, 12, 9, -38,
   -16, -4, 21, -28, -2, -62, -37, 0,
   43, -18, -23, -7, -10, 7, -11, 18,
   -13, -30, -23, -10, -47, -1, 33, 42,
   -26, 28, -6, -6, 20, 22, 30, 6,
   5, -4, -30, -16, -43, -11, 17, 3,
   23, -14, 34, 3, -81, 56, 8, -13,
   -49, -14, 3, 0, -9, -38, 16, -9,
   2, 16, -30, 21, -17, -7, -31, -10,
   21, 32, -12, -28, 14, -3, -1, 3,
   31, 8, -6, -28, 7, -7, 3, 5,
   -17, 24, 35, -6, -22, 5, -1, -26,
   9, 3, 26, 38, -18, -2, -5, -3,
   -40, 9, 4, -2, 31, -2, -16, 11,
   62, -35, -4, -23, -24, -35, 2, 10,
   -3, 46, -63, 44, 23, 17, 30, 8,
   7, -38, 78, -11, 77, 6, -21, 112,
   38, -11, -34, -59, -27, -29, 27, -39,
   26, -31, -5, -46, -44, -26, 53, -74,
   -14, -11, -3, -13, 29, -30, -25, -15,
   -39, 6, 8, -24, 36, 22, -10, 17,
   8, 28, 23, -74, -34, 49, 28, 6,
   -1, 14, 2, -22, -2, -14, -15, 9,
   14, -16, 55, 26, -20, -17, -13, -67,
   1, 40, -41, 11, -11, 28, -2, -34,
   42, -46, -64, -15, 1, 16, 59, 50,
   30, -24, 19, 3, 4, 23, -1, 13,
   8, 20, 9, 59, -28, 45, 18, 32,
   -6, -23, -30, -38, -50, 50, -24, -66,
   -33, 5, -7, 16, -33, 47, 50, 21,
   -25, 15, -54, -38, 3, -16, -25, -24,
   14, -20, 35, 35, -47, 24, 5, 6,
   -30, -55, 26, -9, -93, -51, -44, 17,
   32, 49, -13, 55, 13, -37, 5, -27,
   2, -3, 14, -29, 127, 15, 44, 73,
   64, 60, 3, -77, 19, -38, -33, 10,
   26, -16, -41, 49, -26, 23, 23, 70,
   -60, 5, -24, -12, 11, 31, -14, -9,
   22, -10, 12, -65, 16, -17, 34, 47,
   23, 19, -17, -39, -27, 73, -9, -23,
   -14, -32, -51, -40, 17, -6, 5, -14,
   25, -70, -12, -29, 18, 40, -5, 73,
   -33, -27, -70, -51, -18, -14, -23, -20,
   20, 1, -19, -56, 27, -66, -26, 13,
   43, -26, -12, -18, -30, -2, 7, 7,
   9, -43, 46, 27, -30, -3, -14, -25,
   -78, -31, -41, 19, -93, 17, -52, 11,
   -84, -56, -4, 19, 27, 4, 34, 24,
   -13, 12, -16, -59, 53, 2, -2, -45,
   38, -32, -7, -7, -9, -23, -28, -4,
   2, 39, 35, 14, 54, 54, -5, -48,
   11, -1, -6, -43, -48, 13, 19, 13,
   28, 23, -22, -37, -67, 4, -42, 13,
   -37, -13, 9, 76, -55, 23, 29, 4,
   -58, 27, 18, -9, 4, 23, -8, -7,
   16, -8, 5, 33, 7, 37, 33, 8,
   -12, 54, -33, 19, -7, 11, -35, 37,
   -13, -17, 4, 23, 52, -28, -33, 10,
   -34, 5, -4, 26, -2, 22, 53, 19,
   -59, -17, 5, -4, -27, -8, -69, -27,
   -74, -23, 67, -32, -34, -21, 59, 11,
   -6, 9, -15, 40, 41, 17, 9, -5,
   28, -4, -11, -8, 0, 23, 9, -13,
   -26, -5, -18, 21, -35, -8, -2, 7,
   30, 88, 19, 39, 27, 9, 18, -12,
   -28, 50, -16, -9, 8, -27, -7, -13,
   -42, -14, -21, -31, -13, -6, 31, 15,
   4, 24, 11, -9, 22, -18, 12, -28,
   -29, -13, -67, -88, 38, 21, 5, -27,
   30, 22, -6, -116, 39, -14, -41, -22,
   22, -106, 19, 60, -110, 18, -35, -128,
   -125, 33, 90, -58, 14, -22, -100, 8,
   -37, -7, 86, 15, 51, -41, -49, 61,
   57, -17, -49, 9, -5, -23, 37, 9,
   36, 50, -66, 126, -40, -24, 24, 8,
   -16, -30, -54, -30, 24, -94, 2, 79,
   13, -35, -52, 49, -84, 56, -70, -99,
   -44, 44, -32, 2, -2, -31, -7, 79,
   -2, 32, 119, 30, 38, -50, 33, 26,
   -57, -9, -24, 5, -2, -56, -23, -21,
   -23, 62, -9, -2, 110, 24, -2, 3,
   22, -33, -43, -53, 13, -12, 32, 18,
   45, 14, 16, 7, 54, -58, -10, 61,
   51, -19, 24, 100, -2, 39, -54, -24,
   -30, -6, -15, 28, -29, 32, 32, 36,
   64, -32, -5, -13, 38, -19, 37, 15,
   69, 17, 20, 6, -4, 30, -70, 5,
   -5, 1, 13, 34, -18, 2, 53, -61,
   2, 36, 58, -32, 88, -8, 20, 54,
   2, 56, 13, 19, 48, 38, -17, -11,
   31, -29, -73, 11, -15, 52, 42, 20,
   -66, 6, -124, 75, 29, 15, 37, 5,
   10, 9, -36, -32, 15, 31, 12, 19,
   23, -39, 49, -59, -44, 4, 8, 4,
   47, 30, -2, -7, -31, 21, -21, 32,
   2, -1, 2, -52, -29, 14, -34, -21,
   11, 32, -7, -26, 26, -20, 11, -36,
   -18, 31, -29, -34, -35, -22, -63, 11,
   16, -8, 19, -39, -26, 2, -19, 4,
   18, 38, -29, 24, 26, -9, -37, 1,
   -27, 3, 25, 21, -76, -24, -18, -42,
   -22, -11, -15, 5, -3, -52, -27, 2,
   18, 4, 48, 30, -5, -23, -7, 2,
   -9, -9, 3, -12, 27, 13, -13, -24,
   80, 38, 64, 19, -77, 28, -7, 35,
   -25, -9, -6, -4, 57, -38, 5, -108,
   -31, -52, -1, -55, -65, 8, 127, -9,
   9, -61, -14, -84, 5, 29, -63, -25,
   -41, 23, -122, -18, 26, 53, -17, -47,
   -8, -7, -70, 32, 0, 82, 66, -12,
   -30, 45, -20, 58, 26, -46, 10, -31,
   -45, 26, 28, -4, 18, -7, -83, -14,
   52, -30, 31, 37, -28, -10, 1, 20,
   -27, -24, 16, 11, -5, 26, 19, 2,
   -40, 38, 17, -5, 71, -1, 42, 15,
   -68, -57, 24, 25, 54, 5, -18, -34,
   15, -51, 6, -2, -35, 1, 20, 22,
   0, 2, 1, -34, 16, -29, -3, -6,
   -4, -7, 51, -28, -19, -36, 9, 6,
   -11, 4, 28, -27, 1, 12, -5, 24,
   4, 20, -6, 13, 7, -38, 12, -19,
   55, -14, 11, -27, 1, 19, 14, 16,
   -51, -49, -36, -8, -74, 77, 26, -18,
   13, -53, 21, -16, 38, -38, -60, -36,
   14, -48, -25, 34, 56, -55, -4, -26,
   -3, 58, 28, -23, 9, 31, -23, -14,
   -31, 8, 10, -6, -1, -26, 16, 24,
   -10, -30, -10, 21, 23, 61, 15, -34,
   22, 24, -36, -10, 29, 13, -22, 56,
   26, -39, 8, 23, -4, -68, -15, 17,
   -9, 10, 6, -10, -2, -21, -25, 5,
   -31, -35, -24, -24, 3, -30, -16, 61,
   24, -17, -38, -31, 26, -38, -42, 29,
   -33, -9, 55, -6, 8, 24, -27, -13,
   24, 47, 21, -26, 19, -14, 24, -8,
   -18, 49, 21, -6, 1, 16, 29, 39,
   31, 41, -15, -7, 13, -35, -40, -5,
   2, -9, 2, 21, 6, -13, -18, -20,
   -48, 28, 46, 33, -11, 0, -7, 18,
   22, -49, -15, -4, -15, 1, 5, 30,
   6, -34, -20, -19, 49, -5, -12, 24,
   25, -60, -54, -15, -10, 52, 30, -24,
   -54, 29, 32, 38, -41, -19, 9, -28,
   -7, -26, -1, 25, 22, -63, -13, -27,
   41, 8, 35, 13, 47, -8, -44, -20,
   39, -11, -19, 10, 44, 53, 45, -62,
   6, -38, 18, 46, -1, 30, -8, 22,
   -71, -43, 8, -2, -5, 26, -23, -49,
   21, -30, 5, 21, -36, 30, 20, 35,
   -15, 38, -8, -20, -16, 33, -19, 26,
   -24, 21, 0, -11, 57, 1, -8, -24,
   -24, -15, -31, -7, -7, -12, 5, -34,
   5, 39, -7, -18, -26, 30, -28, -14,
   31, 15, -10, -51, -30, -13, -7, -19,
   19, -8, 11, -35, 5, 16, 9, 19,
   8, -22, 30, 43, -22, -39, -20, 31,
   -12, -5, 0, -13, 26, 1, 11, -1,
   -3, 14, 3, 30, 38, 23, 16, 33,
   -19, 9, -94, -37, 11, 9, 41, 17,
   81, -25, 44, 16, 23, 89, 8, -2,
   29, -14, 16, 52, -26, 3, 44, -42,
   64, -2, 17, 56, -18, 37, 122, 65,
   -55, 50, -20, 19, 55, 4, 10, 6,
   10, 55, -87, 45, 11, 46, 37, 62,
   -28, 18, 33, -43, -52, -34, -56, -14,
   4, 16, 4, 12, 47, -11, 44, 14,
   -39, -17, -47, 12, -10, 52, 12, -47,
   7, 6, -40, -15, -14, 19, -25, 87,
   -48, -1, 19, 14, -41, -40, -14, -5,
   -40, -18, -16, 42, -67, 43, 43, 18,
   26, -58, -27, 11, -2, -35, 15, -25,
   19, 36, -47, 19, -15, -22, 7, -6,
   -23, -24, 22, 28, -8, 13, -27, 7,
   -23, -44, 21, -23, -23, -34, 6, -4,
   56, -44, 34, -48, -26, 41, 68, 6,
   22, 1, 29, 17, 47, -17, 14, -5,
   -25, -10, -18, 17, 19, 26, -30, -5,
   57, -4, 57, 21, -37, 33, 2, 0,
   37, 31, 18, 35, 39, 20, -11, -29,
   30, 13, 20, 37, 1, -7, 90, -17,
   -33, -20, -28, -30, 68, 5, -21, 0,
   0, -33, 46, -33, 40, -76, 51, 61,
   -34, 44, 30, -23, -11, -4, 29, -11,
   24, -24, 42, 13, 5, 24, -19, -31,
   4, 5, -37, -24, -6, 31, -13, -23,
   -14, 12, -3, 18, -2, 51, 16, 12,
   -13, -18, 18, 14, -5, 48, -14, -3,
   6, 43, -2, 26, -19, 20, -23, 10,
   -11, 22, -19, -20, 4, 27, -12, 12,
   23, -32, -13, 1, -1, -13, -9, -5,
   24, 1, 20, -3, -10, -8, 2, -38,
   -15, 35, -17, 14, -20, -7, -28, 0,
   -28, -44, -24, -23, -16, -37, -9, -22,
   -32, 28, 15, -26, -23, -30, -1, -44,
   -42, 33, -21, -1, 21, -18, -52, 26,
   -19, -31, -40, -18, -3, 85, -31, 3,
   -1, 16, 36, 30, -4, -26, -20, -35,
   -29, 34, 31, 23, 11, -45, 101, -12,
   39, 7, 26, -5, 54, -13, -11, -8,
   21, -30, -58, 19, 24, 24, 13, 74,
   -2, -5, -45, 34, -45, 7, 8, -41,
   28, -21, 28, -22, -6, -43, 42, 8,
   -38, 16, 27, -32, -15, 30, -49, -9,
   -13, 8, 43, -29, 21, -28, 11, -26,
   -53, -8, 0, 22, 10, -28, 5, -14,
   2, -36, -55, 33, -1, -20, 53, 26,
   28, -40, -21, 29, -41, 31, 27, -4,
   5, 8, -42, -34, 20, -31, 24, -26,
   30, 23, 16, -15, -14, -38, 27, -44,
   -4, -51, -14, 1, 2, -34, -8, 29,
   26, 24, -35, 32, 15, 4, 39, -13,
   -35, -25, 25, 14, 32, -3, -15, -6,
   44, 4, 22, -14, -48, -56, 28, -35,
   -16, -14, -74, 11, -19, -39, 28, -28,
   -56, -32, -19, -49, 26, -18, -12, -9,
   -29, 12, -18, -70, -32, 5, 35, -22,
   -31, -10, -45, -12, -53, -20, -46, 7,
   13, -31, 53, -12, -18, 55, -54, -16,
   -17, -55, 10, -35, 45, -17, 41, -16,
   22, 9, 20, -9, -39, -3, 16, -19,
   -9, -45, -69, 10, -6, 10, -32, -33,
   8, -17, 22, 9, -40, 44, 19, 21,
   -17, -64, 40, -2, 10, -11, 15, -19,
   17, -27, -13, 23, 5, 22, -45, 4,
   8, 4, 8, 4, 29, -34, 32, -1,
   40, 5, -20, -16, 18, 6, -27, -24,
   -18, -8, 7, 8, -19, 10, 16, 13,
   41, 24, 23, -27, 6, -2, -19, -19,
   -13, -17, -16, -26, -13, -2, 2, 14,
   3, -5, -6, 35, 24, -21, 36, -3,
   -62, 20, -39, 26, 17, -33, 40, -23,
   39, 22, 32, -9, -17, -5, -44, 12,
   47, -32, 61, 21, -10, 78, 32, -52,
   28, -78, 68, -10, 28, -2, -26, 11,
   26, 6, 6, -28, 25, 61, 46, 95,
   -1, 29, -6, -36, 1, 32, -24, 61,
   11, 29, 20, 10, 2, 50, -6, -27,
   51, -23, 33, -2, -17, 23, 35, -13,
   -14, 33, 6, 33, 26, 27, 41, 51,
   1, 28, -23, 26, -25, 25, 37, -10,
   45, 50, 5, 39, 10, -6, 37, 20,
   35, -29, 13, 20, 14, -30, 66, 4,
   2, -16, -7, -6, 35, 4, -36, 5,
   -24, -4, 26, -16, -3, 31, -1, 2,
   -4, 0, 18, -6, 14, 6, 11, 11,
   -23, -26, 24, -2, -29, -21, -21, -13,
   -49, 38, 43, 13, -26, 35, 7, 23,
   -19, -15, -37, -55, 19, -24, 5, 8,
   -19, 105, -29, 54, 49, 25, 1, 26,
   7, -56, 44, 77, 62, 37, -31, 60,
   111, 64, -21, 76, 29, 29, 0, -50,
   63, 43, -10, 78, 23, 56, -10, 0,
   -81, 44, -14, -38, 99, 48, -3, -60,
   -18, -21, 25, -32, -19, -7, -28, 68,
   30, -17, -5, -10, -27, 37, 35, 9,
   2, -16, 35, -60, -22, 9, 19, 3,
   39, 30, -44, -5, -26, 11, 40, 77,
   30, -16, -43, 41, -19, -14, 82, 18,
   -38, 18, 57, -25, -77, -13, -18, 21,
   -89, 3, 10, -34, -25, -50, -27, -54,
   14, -55, -26, -8, -6, 11, -15, -1,
   29, -1, -9, -32, -6, -28, -3, -48,
   -12, -46, 3, -29, -48, 14, 35, -58,
   -28, -11, -3, 8, -26, 10, 2, 18,
   13, 35, 33, -22, 20, 48, 38, 1,
   31, -13, 13, 19, 34, 17, -1, -43,
   -15, -40, -22, -38, -16, -7, -10, 34,
   -26, 57, 1, 20, 18, -14, 1, -17,
   26, -45, 19, -67, -59, 16, -44, 3,
   12, -29, -46, 63, 12, -8, -13, 4,
   -20, 10, 5, 24, -77, 12, -23, -38,
   -2, 17, -20, 42, -14, -12, -21, -65,
   -10, 24, 20, -5, -29, 43, -2, 22,
   35, 18, 3, -11, -7, 10, -2, -12,
   25, -19, 69, -49, 0, -8, 16, -59,
   1, 43, 30, -15, -38, -16, -9, -39,
   13, 34, -24, -23, 34, 21, -22, 29,
   8, -28, -22, 2, -18, -21, 39, 32,
   46, -34, 22, 6, 13, -18, 22, 23,
   23, -13, -12, -15, 36, -36, -38, -34,
   -12, -29, 3, 40, 23, -21, -1, -31,
   14, 0, 21, 14, -13, 28, 31, -6,
   -33, 28, -30, -29, -1, -14, 14, 19,
   -10, 25, -30, -8, -47, -16, 4, -17,
   -54, -20, 36, -28, -21, 4, 47, -68,
   8, 59, 56, 93, -9, -75, -13, -1,
   -3, -39, -79, -71, 69, -36, -30, 102,
   39, 61, -47, 23, -25, 80, 39, 6,
   -12, -33, -108, 32, 31, 7, -11, 25,
   39, -66, 20, 23, 16, -56, -17, 68,
   3, -44, 4, 23, 36, 21, 13, 18,
   -16, 30, 76, -54, 17, 3, -44, -50,
   52, 6, -9, 37, 31, -23, -4, 48,
   -18, -7, -41, 35, -31, -24, -1, -46,
   -80, 27, -32, 15, 26, 45, -2, 9,
   55, -68, 0, 9, 40, -56, 58, 29,
   8, 14, -15, -18, -5, 33, 11, -7,
   -22, 36, 48, 0, -30, 0, 10, 34,
   14, -17, -6, 49, -55, -34, -17, 12,
   15, 13, 38, -11, -1, 17, -7, -27,
   4, -5, -30, 38, 11, -24, -28, 10,
   39, -13, 5, 29, 0, 18, -16, -8,
   14, -11, -4, -19, -24, 38, -16, 5,
   12, -30, 29, 1, -31, -22, -43, 25,
   53, 21, -32, 25, 1, 22, 3, -3,
   8, -44, 12, -22, 21, 2, -52, 2,
   5, 16, 13, 29, -37, -28, 35, 23,
   -16, 54, -11, 19, -18, -43, -22, -32,
   40, 20, -28, -12, -13, 8, 29, 32,
   -24, 23, -12, -17, -4, -7, -3, -30,
   -38, 9, 27, 1, 63, 10, 16, -15,
   -14, -15, -4, 31, 39, -18, -42, -41,
   39, 59, -23, -8, 3, -9, -42, -40,
   12, 22, -34, 17, 22, 1, 44, -24,
   24, 8, 10, -33, -17, 14, 14, -8,
   23, -31, 29, -16, -29, -8, 3, -5,
   17, -22, -28, 51, -23, -33, 15, -20,
   14, 27, -49, -35, -15, 11, 22, -13,
   17, -32, -18, -11, 35, 6, 4, -3,
   -11, -4, 27, 43, -6, -28, 43, 13,
   18, 13, 15, -75, -11, -55, 26, -11,
   -7, -28, -15, -5, 21, -14, 16, 6,
   -34, -44, -17, 18, 12, -3, -37, 8,
   35, -3, 30, 45, -45, -7, 84, -41,
   11, -25, -25, -9, -29, 7, 28, 35,
   -19, 10, 0, -4, 23, -14, 32, 8,
   17, -38, 26, -34, -19, 16, 1, -32,
   -7, 4, 31, 6, 22, 8, -33, 5,
   -29, 11, -18, -1, 25, -5, -4, -6,
   10, -46, -17, -34, -12, -5, -17, 30,
   -20, -4, -11, -24, 6, -21, 37, -37,
   5, 19, -47, 16, -18, 23, -36, 0,
   -1, 0, 18, 14, 28, 33, 26, 27,
   21, -22, -17, -7, -28, 21, 35, 4,
   22, -24, 29, 22, -16, 38, -20, -14,
   15, 14, -24, 9, 13, 22, 9, -17,
   -10, -18, -3, -16, -13, 24, -33, -18,
   -6, -35, 14, 30, -6, 8, -41, -26,
   -24, -20, -13, 23, -2, 14, -25, -2,
   23, 15, 11, -36, 13, -43, -30, -30,
   -49, -8, 14, -28, 20, 46, 33, 20,
   -27, 33, 24, -43, -12, 29, -48, 29,
   -21, 26, -6, 48, -14, 43, 18, 58,
   -1, -12, 11, -8, -30, -12, 41, -28,
   -19, 31, 22, 13, 0, 13, -14, -41,
   11, 42, 2, 46, -1, 10, -10, 19,
   33, -7, 10, -29, -37, 5, 20, -45,
   -28, 9, 9, 2, 23, 2, -28, 47,
   3, 11, 43, -33, -1, -6, -1, -10,
   23, -3, 15, -29, 46, -11, 5, 20,
   -26, 22, -2, -9, 17, -2, -37, 14,
   -1, -34, -2, 17, -12, 18, -8, -40,
   26, -13, -6, -1, 29, 10, 17, 0,
   14, -31, 8, -16, 20, -18, 1, 17,
   -21, -43, 16, 22, -2, 17, 43, -14,
   -33, -38, -22, -27, -4, 25, -4, -6,
   11, 35, -47, 24, 25, 7, -12, 26,
   79, -26, 20, -36, -31, -34, -17, -18,
   -7, 79, 14, 14, 27, -40, -15, 23,
   6, 3, -12, -11, -12, -65, -5, -24,
   -54, -2, -24, 2, 46, 5, 12, 16,
   23, 5, -48, 26, 37, -49, 31, -3,
   8, 30, 39, 13, 14, -35, -8, 1,
   2, 12, 8, 42, 10, -10, -2, 27,
   31, -39, -30, 27, 48, -15, -24, -37,
   6, 27, -24, 26, -24, 30, -20, 44,
   -26, 25, -34, -13, -9, -1, 6, 8,
   -21, -2, -1, 7, 18, 31, 52, -32,
   -21, -5, -4, -4, -1, 28, 31, -4,
   -10, -11, 27, 19, 14, 4, -2, 38,
   7, 2, 19, 23, 0, 35, -36, -13,
   -10, 27, 49, -27, -22, 13, -32, 3,
   -5, -8, 5, 29, -2, -3, 3, 16,
   -17, 8, 31, 37, 9, -15, 9, -3,
   -24, 5, 4, 34, -16, 28, 4, 35,
   -20, 8, -33, 1, -39, 19, 22, 54,
   22, -18, -41, 8, -51, -48, 2, -30,
   -16, -39, 3, 18, 19, -52, 14, -3,
   1, 0, -70, -4, 13, -7, -4, -16,
   30, 18, 14, 16, 2, -19, -41, 23,
   -17, -26, 14, 12, -36, 27, 5, 7,
   -10, 9, -24, 20, -29, 21, -33, 20,
   43, -23, 10, -20, -12, -17, -11, -21,
   -29, 38, -24, -15, -31, -20, 0, -36,
   -1, -33, 1, 1, -25, 44, -23, 17,
   -64, 30, 34, 11, -4, 8, -30, 22,
   -6, 19, 12, -24, -48, -19, -5, -40,
   -19, -23, 6, 30, 35, -22, 12, 38,
   21, 11, -25, -5, 26, -13, -15, 11,
   -1, 8, 33, -3, 17, 31, -22, 30,
   -12, -20, 31, -2, 21, -33, 1, 13,
   7, 8, -1, -6, -25, 7, 32, 27,
   15, 17, -3, -28, -1, -36, -27, -27,
   -25, -30, -15, -26, -10, -7, 26, -30,
   14, 3, -32, 82, 7, 3, -8, -53,
   -14, -3, 17, -11, -38, 2, 34, 26,
   10, 2, 97, 24, 24, -13, 10, -48,
   53, -24, -3, 26, 0, -34, 15, 12,
   -27, 35, -8, 17, 20, -5, 12, 24,
   -10, 23, 54, 1, -1, -41, -35, -14,
   -9, 4, 20, -3, -13, -2, -23, 14,
   33, 40, -4, 35, -21, 22, -5, -20,
   -39, 29, 0, -10, -5, 5, 2, 13,
   -21, 20, 50, 5, -3, 24, 56, 53,
   1, -8, 32, 2, -42, 27, 8, -43,
   -21, -6, -5, -37, -21, -36, -38, -13,
   24, 23, 6, -18, -27, -14, 40, -1,
   9, -23, -19, 23, 20, -19, 16, -19,
   -10, 32, -23, -23, 21, 12, 14, -35,
   39, -37, 0, 31, 21, -9, -26, -32,
   11, -4, 14, 20, -76, -3, -2, 9,
   -4, 65, 27, 49, 11, 9, -16, 44,
   19, 10, -58, -9, 36, -31, 28, 6,
   16, 32, -40, -27, -24, 17, -15, 11,
   -7, 30, -79, 19, 23, 12, -10, 7,
   -72, -6, 13, -9, -25, -28, 14, -38,
   -31, 2, 9, 8, 15, -26, 12, 1,
   -34, -26, -12, -45, -7, -10, 22, 2,
   32, 2, 5, 25, -15, 58, 33, -16,
   -38, -50, 0, 7, 8, 1, 24, 12,
   -30, -4, 10, -22, 8, 26, -16, -11,
   -11, 21, -26, 24, -6, -10, -20, 14,
   36, -37, -51, -17, -26, -14, 33, 16,
   -16, 5, 3, 28, 2, -24, 31, 22,
   -3, -18, -6, 30, 3, 30, -48, -50,
   -12, 13, 25, -11, 34, 0, 3, -32,
   -15, -31, 19, -21, 17, 6, -16, -29,
   1, -28, 38, 12, -25, 31, -31, 28,
   -59, 56, -27, -77, 91, -22, -24, 8,
   -20, 67, 8, 28, 13, -22, -34, 47,
   -2, -128, 75, 62, -24, 52, -111, 71,
   -13, -37, 6, 16, 6, 6, 2, -13,
   105, 7, 35, 35, -16, -34, 12, -47,
   -15, 30, -25, -58, 1, -17, 11, 67,
   -5, -7, -1, -12, -17, 31, 28, -14,
   60, 10, -74, -10, -75, -32, 17, 20,
   2, 42, 19, -15, -38, 8, 20, 25,
   -28, 45, -8, -10, -30, -14, -52, 33,
   -2, 59, -35, 26, -40, 49, -57, 24,
   33, -43, 33, 28, 37, 49, 36, -16,
   -15, 37, 47, -36, 20, -37, 18, 4,
   -4, -20, 14, 9, 0, 33, 2, 6,
   -21, 20, 27, -41, 21, 2, 33, 0,
   6, 19, 46, -42, 35, 25, 43, 27,
   -9, 30, -35, -36, 12, 9, 6, 12,
   -63, 33, -25, 2, -10, 22, -33, 32,
   12, 12, 7, 24, -77, 2, -19, 30,
   -41, 51, -60, -41, -7, -9, 18, -35,
   -26, -56, 25, -67, -21, 19, -3, 10,
   8, 11, 2, -40, -8, -46, -32, 9,
   -34, 21, -77, 24, -6, -2, 5, -16,
   -6, -18, -11, -34, 17, 25, -46, 4,
   40, -24, 15, 7, -16, -12, -27, -1,
   -12, 27, -24, -4, -34, -8, -26, 4,
   18, -8, 20, 2, -41, -14, 5, -19,
   -38, 15, -18, -30, -31, -8, 23, 10,
   23, -29, 13, 37, -31, 15, -18, 45,
   9, 9, -30, -28, 17, 31, 28, 13,
   17, 3, 17, 2, 28, 4, -20, 8,
   8, 5, -5, -9, -25, 19, 3, 17,
   19, -13, 22, -7, -3, 6, -2, 37,
   15, -9, -2, 4, 10, -26, 31, -2,
   18, 20, 17, 35, 22, 21, -14, 17,
   -3, 30, 5, 13, -21, 25, 3, -4,
   22, 3, 33, 36, 50, 15, -64, 50,
   -6, 17, -59, -2, -30, 3, -1, 11,
   46, 37, 16, 14, 10, -19, 45, -12,
   35, 41, 6, 63, -20, 10, 53, -23,
   -80, 35, 36, 28, -45, -56, 15, 64,
   -30, 9, 36, 18, 15, -19, -8, 16,
   19, 11, -21, 25, 9, -9, 14, -20,
   24, -28, 7, 19, 9, -31, -17, 8,
   39, -10, -11, -33, 19, -56, -33, 8,
   -26, -42, -2, -31, -30, -48, 24, 38,
   0, 19, 2, -21, -38, -4, 31, 25,
   -10, -20, 6, 39, 6, 3, 2, 28,
   17, 27, -38, -33, -46, -22, 30, 12,
   -18, -13, -4, -10, -26, -39, -15, 0,
   3, 5, -1, -47, -17, -36, -25, -1,
   -6, -39, 14, -6, 34, -27, 39, 35,
   -3, -4, 13, -42, 16, -1, 18, -31,
   15, -35, 13, 29, -21, -15, 12, 9,
   6, -8, -4, 14, 21, 30, -11, 37,
   -2, 2, 26, -30, -16, 33, -6, -4,
   -9, 1, 29, 29, 5, 4, -36, -34,
   -9, 21, -45, 17, 33, -21, -13, -9,
   -8, 16, 33, -32, 37, -51, -6, -26,
   -13, -29, -57, -33, -20, -15, -24, 5,
   23, 0, -14, 38, 7, -40, -18, -11,
   25, -13, -22, -11, -40, -29, -28, -17,
   -24, 9, 28, 12, -34, -55, 5, 33,
   22, -31, 36, -4, -2, 31, -29, -7,
   7, -16, 17, -10, 32, -27, -29, 32,
   21, 20, -14, 23, 32, 25, -7, -18,
   25, -15, 39, -11, -13, -10, 13, -39,
   23, 4, -16, -9, -15, -15, 28, -45,
   18, 19, 3, 28, 29, -29, -12, 16,
   -31, 1, 17, 1, -39, 11, 29, -1,
   -7, -26, 39, -29, 4, 14, -15, 27,
   -19, -7, -43, -30, 24, -32, -20, -15,
   8, -28, -15, -27, 32, 18, -12, 10,
   -32, -15, -80, -77, -17, -18, -30, -28,
   -16, -39, -12, -3, -74, 28, -21, -37,
   -16, 19, 9, 47, -7, 15, -21, 31,
   -3, -28, -40, -7, 33, 28, 12, -20,
   -4, -33, -39, 75, 26, 4, 34, 2,
   10, 26, -10, 20, -26, -21, -19, -7,
   -48, -40, -22, 30, -24, -20, 2, -52,
   -22, -18, -38, 35, -26, -63, -49, 20,
   16, 25, -15, -14, 22, -21, 31, -12,
   -27, 18, 8, 12, 19, -52, 9, -5,
   23, -17, -38, -29, 19, -61, 4, -28,
   -24, -4, -25, 0, 6, -20, 22, -35,
   44, -14, 12, 8, -39, -8, 29, -43,
   37, 1, 14, 3, -4, -44, -3, 4,
   -22, 14, -34, 27, -31, -47, 22, 10,
   -1, -10, 44, 38, 11, -44, 16, -54,
   17, 8, 32, -4, 26, -14, 4, 20,
   -38, 52, -58, -68, -14, -9, 63, -25,
   11, 43, 73, -13, 29, -62, -108, -9,
   -20, 7, 42, 62, 18, -11, -63, 25,
   6, -67, -39, -113, 2, 62, 14, 13,
   19, -21, 30, -24, -9, -75, -10, -45,
   3, 21, 23, -6, -1, 6, -25, 26,
   6, -58, 10, 32, -38, 29, 0, 1,
   -5, 32, -13, 12, -8, 75, 33, -4,
   -59, 45, 24, -42, -6, 49, 9, -47,
   -11, -11, 44, -33, 11, 17, 34, -16,
   42, 23, -58, -37, 5, 56, 24, 14,
   71, -22, 0, -53, 16, 27, 3, -10,
   6, -12, 2, -2, 42, 68, 9, 20,
   11, -43, 28, 13, 6, 12, -17, -52,
   -21, -69, -18, 0, 77, 28, -21, 4,
   28, -5, 7, 22, 8, 24, 42, 27,
   -11, -7, -26, -13, 25, 77, 3, 17,
   -9, 8, -23, -3, -10, -10, 31, 6,
   14, -17, 39, -6, -8, -3, -11, 21,
   16, 12, -7, 11, -8, 15, -4, -13,
   27, 0, -11, -19, 18, -3, 16, 1,
   -8, -8, 11, 0, -20, 15, 17, -1,
   -9, 23, -3, -11, -5, 17, 30, 9,
   -1, 4, -14, 1, 27, 2, 2, 11,
   -7, 8, -2, -31, 13, -1, -6, 40,
   -2, -9, 23, -13, -3, 13, 18, 5,
   16, -14, -3, 20, 17, -6, -26, 24,
   -25, 16, -5, -3, -9, -6, 13, 10,
   -14, -7, -4, 19, 22, -15, -2, 11,
   2, -6, -13, 31, 20, 13, 10, -4,
   -5, -20, -28, -23, -35, 32, 35, 6,
   22, -27, 16, -5, -12, -26, 33, -26,
   -8, -7, 19, -1, -30, -20, -36, 28,
   -13, -11, -5, -42, 6, -13, -7, 9,
   37, 39, 22, -8, -35, 18, 25, -1,
   31, -25, 20, 23, 23, -5, 44, 4,
   0, -31, 31, -11, 9, 22, 23, -2,
   -6, -6, -18, 14, -13, 20, 14, -8,
   3, 26, -3, -8, 4, -10, -22, -22,
   4, 6, 9, -1, 1, 8, 5, -4,
   13, -19, 26, -22, -4, -14, -13, 14,
   -2, -25, -8, 18, -23, 7, 8, -23,
   -36, -7, -13, 42, 4, 12, 30, 24,
   -22, -20, 13, 17, -40, 17, 9, -7,
   29, -29, -16, 13, 24, 16, -6, -4,
   6, -18, -11, -17, -8, 4, -7, 20,
   6, -5, 10, 29, -2, -14, -20, -17,
   15, -17, 25, -16, 53, -9, 15, 10,
   -35, 6, -1, 36, -10, 20, -25, -24,
   -22, -3, 25, -23, 24, -39, 10, -45,
   -20, 25, -10, 26, -14, -39, 0, 32,
   -43, 23, 16, 17, -23, -38, -23, 25,
   21, -4, 14, 0, 14, 8, 6, 23,
   6, -15, -10, 13, 7, 7, -16, 20,
   -1, -27, -2, -9, 11, -20, -1, -5,
   -50, -6, -8, -4, 6, 3, -22, -4,
   -5, 12, 1, -23, -4, -14, -39, 4,
   17, -17, -7, -10, -5, -5, -29, -27,
   -30, -13, 43, -5, 17, 16, 22, -11,
   -13, -5, -29, -14, -23, -15, 12, -1,
   18, -19, 12, 12, 2, 18, -25, 29,
   21, 20, -29, 44, 39, 27, -5, -10,
   14, -43, -74, 23, -17, -1, 0, 22,
   44, -44, 24, -29, -43, -39, 20, -45,
   34, -16, -4, -4, 18, -27, 31, 66,
   30, -15, -40, 16, 4, 38, 20, 1,
   17, 28, 11, -4, 26, -23, 18, -26,
   25, -6, -22, -11, 6, -32, 12, 0,
   3, 14, -25, 14, 1, -6, 29, 30,
   22, -21, -4, 35, 2, -50, -34, 33,
   -23, 10, -19, -38, -12, -4, 30, 24,
   -55, -21, -13, 0, 11, -43, 12, 13,
   -23, -33, -12, 10, -14, -10, 4, -4,
   -24, 11, 18, -11, 13, -46, -28, 2,
   -11, -17, 9, 3, -15, -31, 0, -9,
   -16, -10, -29, -17, -28, -27, -14, 35,
   -56, -11, 32, -9, -2, -34, -12, 5,
   -14, 4, -1, -36, 11, -11, -33, 4,
   2, -29, -9, 2, -22, -33, -8, -12,
   -2, 29, 8, 9, -22, 25, 71, 22,
   16, -5, -12, -1, 0, -32, 0, 15,
   -9, -23, 6, -15, 41, -39, 38, 41,
   30, 9, -34, -8, -1, 20, 5, -70,
   1, -27, 46, 32, 15, -41, -23, -35,
   28, 22, 13, -13, 14, -4, -27, 31,
   -16, 24, 7, 37, 38, 16, -10, -18,
   19, 2, -2, -12, 35, -16, 2, 6,
   -8, 24, -9, -12, 14, -4, -12, 43,
   -21, -3, -11, 6, -18, -23, -4, -31,
   -37, 19, -17, -33, -26, 19, -9, -37,
   -26, 19, 6, -35, 40, -37, -28, -6,
   5, 10, -6, -18, -20, -30, 24, 6,
   -8, -4, -40, -4, -15, -21, 4, 32,
   10, -7, 23, -35, -33, -27, -11, -38,
   -3, -21, -19, -5, -9, 3, -13, -14,
   -36, -19, -57, -58, -3, 9, -13, -5,
   18, 1, 19, -5, 7, -1, 22, -20,
   -41, 25, -39, -33, 22, 57, 42, -15,
   38, -22, -17, -5, -28, 36, 1, -10,
   -62, 4, -18, 22, 12, -18, 5, 35,
   50, 3, 18, -31, -25, -40, -15, -29,
   -28, 17, -27, -24, -31, -45, 10, 10,
   25, -5, 29, 44, -3, -6, 29, 27,
   3, 3, -35, -23, 9, 25, 27, 10,
   -27, -29, 31, -6, 18, -35, -33, 3,
   9, 15, -17, -21, 44, 23, 9, -48,
   23, 8, -17, -21, 35, 0, -8, -10,
   -20, -10, -11, -10, -3, 27, -10, -3,
   -49, -6, 79, -13, 19, 5, 4, -8,
   -4, -9, 37, -18, -1, -10, -15, -9,
   13, 23, 17, 16, 10, -24, -37, 25,
   -19, 2, 39, -9, -6, -8, -22, -61,
   19, -22, -40, -4, 4, -4, 25, 0,
   19, -10, -25, -21, -26, -29, 12, 19,
   23, 1, 5, 3, 2, 18, -15, 3,
   -11, -48, -4, -53, 26, -16, -34, -1,
   -18, 6, -2, 0, -58, 16, 32, -32,
   37, 28, -19, -16, 26, -17, 4, -67,
   47, 25, 22, -5, 17, 4, -33, 84,
   -1, 32, 38, 1, -2, -48, 30, -34,
   16, -14, 30, -28, 20, -30, -21, 28,
   18, -11, -14, -12, -35, 15, -33, 20,
   -49, -44, 31, -25, -18, 42, 40, -13,
   2, -22, 5, -1, 27, -24, 8, -8,
   14, -39, -12, -52, 2, 18, -1, -17,
   -29, 32, 12, 16, 39, -8, 28, -20,
   70, 19, -125, 22, -16, -6, -81, -49,
   -124, -17, 80, 82, 17, 108, -8, -63,
   84, 15, -2, 76, -41, 7, -50, 45,
   23, 74, 78, 47, 66, 34, 40, -8,
   -5, 26, -120, 88, 34, -9, 85, 71,
   11, 82, 68, -17, 44, -91, -72, 26,
   8, -5, -15, -59, -45, 62, -58, -36,
   60, -45, 112, -128, -25, -119, -100, 32,
   79, -26, 67, -53, -127, -90, 8, 51,
   27, -128, -62, 25, 124, -44, -128, -128,
   18, 127, 87, -69, -48, 85, 127, -128,
   78, -108, -2, -128, 88, -65, 9, -128,
   15, 34, 66, -31, -45, -40, -18, 37,
   -39, 1, -39, -15, 33, 127, -77, -15,
   -68, -21, 41, -43, 13, 16, 11, -33,
   27, 9, -52, -47, -89, 35, 16, 15,
   -20, -5, -65, 83, 9, 121, -3, -125,
   50, -82, 10, -42, 36, 35, 17, -77,
   127, 19, 95, -32, 80, 39, 8, -11,
   -23, -37, -38, -71, -53, 127, 61, -87,
   127, 127, -124, 51, -59, 6, -6, 14,
   8, 55, 60, -44, 63, 36, 46, 84,
   -22, -71, -42, -42, -8, -15, -36, -40,
   -29, 69, -107, -11, 52, -128, 21, -128,
   -8, 7, -17, 66, 16, 2, -26, -128,
   25, -17, 44, -94, 127, -4, 29, 107,
   -43, -77, 112, 24, -24, -90, -24, -87,
   -84, 49, -101, 44, -43, 68, -127, -128,
   46, -2, 90, -37, -103, -33, -22, 127,
   -18, 45, -44, 4, -29, -3, 58, -12,
   8, 15, 73, 61, 31, 22, 18, 28,
   -2, -20, -76, 1, 65, 127, -10, 72,
   -92, -87, 11, -26, 72, 58, -11, -30,
   30, -3, -40, -35, 23, 19, 3, -11,
   74, 9, -110, -7, 26, 54, -112, 82,
   43, -37, 46, 52, 13, 13, 41, 58,
   -76, -6, -101, 62, -57, 33, -58, -39,
   -120, -68, -59, -74, -15, 94, -29, 43,
   -43, 60, -52, 70, -35, -86, -5, 22,
   24, 6, -20, -80, -82, 93, -55, -11,
   -56, 35, -128, -17, 67, 23, -89, -94,
   127, -128, -5, -49, -106, -128, -128, -128,
   88, -97, -55, 11, -72, 77, 74, 48,
   112, -46, -108, 5, 80, -50, -128, 40,
   -128, -90, -128, -74, -49, 20, -3, -115,
   -121, -96, 50, 11, -83, 11, -128, 81,
   24, 37, 36, -49, -127, 4, -53, 127,
   -81, 111, 34, 25, 87, -39, 126, 47,
   33, -85, -16, -15, 19, 7, -60, 58,
   -25, 117, 31, -25, -49, 57, -98, 36,
   -105, 23, -127, -23, 63, 57, -15, -49,
   84, 6, -45, -12, 22, -42, 68, 19,
   7, 5, -68, 46, 6, 88, -74, -31,
   16, 37, -39, -7, -15, -52, 127, 6,
   28, 25, -98, -10, 25, 116, -75, -23,
   0, -18, 37, -17, 14, 65, -56, 4,
   -96, -66, 8, 91, 68, 111, -10, -79,
   127, -7, 78, 37, -27, 81, -27, -107,
   16, 95, -128, 114, -15, 11, 45, -72,
   25, -1, 101, 56, 127, 69, 29, 34,
   70, -104, -37, -111, -30, 22, 85, -4,
   -46, -125, -12, 43, 56, -83, -114, 105,
   10, 68, -122, -4, -38, -109, -42, -34,
   -28, 34, -30, 90, 127, 32, 105, 45,
   -29, -3, 44, 3, 127, -13, 98, -128,
   103, 4, -52, -34, -128, -53, -44, 41,
   83, -106, -46, -27, 28, -2, 20, -42,
   -18, 34, 23, 29, -61, 101, -53, 8,
   -61, 38, -120, -27, -48, 26, -39, -31,
   76, 17, -15, 32, -30, -81, 69, 29,
   23, -4, 61, 119, -29, 109, -107, -81,
   64, -14, 84, 62, -14, 58, -29, -10,
   127, 30, -35, 68, -40, 72, 78, 119,
   -6, -89, -110, 8, -3, 1, 14, 69,
   -128, -44, -79, 78, 89, -56, -2, -48,
   46, 75, 127, -72, -55, -78, 9, 13,
   100, 25, -117, -70, -46, 6, 117, 14,
   -23, 98, -78, -44, 94, -100, 123, -77,
   108, -80, -60, 71, 40, 19, 7, 50,
   15, -36, -29, 99, -95, 67, -14, -9,
   -4, 75, -100, 1, -64, 82, -9, -82,
   89, 17, 50, 110, -127, 53, -128, -93,
   -14, -128, -1, 0, -28, -54, -44, 57,
   118, -105, -41, 56, 71, 33, 37, 127,
   -15, -103, -57, -41, -16, -8, 19, 37,
   -42, 40, 4, -2, 52, 53, -10, 17,
   -44, 8, -45, -32, 42, 51, 24, -94,
   43, -50, -18, -58, 13, -89, -13, -34,
   13, -9, -31, -29, 54, 61, -64, 25,
   17, -107, 40, 16, 24, 81, -21, 124,
   -128, -8, -79, 27, -46, 127, -39, 31,
   -128, 22, -40, -27, 64, -58, -10, -38,
   -54, -72, -104, -76, 127, 125, 6, -115,
   9, -103, -63, 59, 116, -89, -85, -21,
   28, -28, -117, 80, -28, -26, -4, 78,
   -112, -80, 120, 3, -35, -120, -111, -128,
   127, -37, -71, -64, -42, -18, 65, -13,
   7, 1, 48, 4, 108, -57, -100, 31,
   10, 33, -27, -3, -26, 32, -14, -28,
   82, -2, -9, 17, 125, -44, 127, -67,
   126, 45, -44, 60, 88, -128, -128, 62,
   98, 55, 36, -128, -16, 34, -106, 11,
   37, -108, -128, -3, -9, -17, -26, 10,
   -15, 67, -12, 30, -29, 40, 6, 54,
   -3, 81, -25, 37, -75, 24, -5, -102,
   38, 16, -1, 42, -19, 1, 6, -75,
   50, 40, 27, 6, 25, -78, -81, -26,
   -18, 54, 43, -47, 40, 15, -10, 27,
   17, -70, -11, -20, 88, 100, -32, 124,
   28, -15, -65, 98, 35, 26, 85, 127,
   -128, -91, -115, -30, -6, 4, 56, -127,
   37, 6, 30, 21, 8, -95, -89, 120,
   52, 38, -127, 118, 29, 49, 103, 101,
   -104, 6, 46, -100, 6, 124, -27, 13,
   112, 75, 51, -77, -55, -11, 16, 18,
   -35, 14, -128, 127, -90, 33, -77, -60,
   52, 111, 82, 60, -33, 34, 11, 4,
   89, 71, 20, 33, 111, -46, 127, -127,
   -128, -92, -128, -42, 89, 3, -7, 18,
   127, -35, -78, -86, -54, 86, -62, 127,
   70, -105, -92, -55, -97, 54, 33, 30,
   17, -58, -28, 33, 4, 32, 43, 65,
   27, -13, 18, 4, 26, -31, -23, -128,
   0, -101, -15, -63, -28, 31, 81, -26,
   11, -2, 9, 39, 16, 67, 2, -8,
   72, 65, 100, -73, -6, 91, 19, 2,
   12, 30, 106, -39, 127, 19, 28, 39,
   -110, -6, 35, 72, -128, -121, 127, 110,
   27, 55, -127, -128, 127, 74, -84, -128,
   71, -91, 49, 77, -71, -90, -59, 28,
   -11, 48, -85, 62, -61, 48, 7, 119,
   44, -50, 37, 109, -39, -60, 112, 42,
   36, 95, 60, -69, 63, -5, 50, -28,
   60, 109, -5, 127, 17, 53, 44, -68,
   -76, 108, 6, 19, 22, -20, 42, 38,
   -77, 127, 30, -58, 104, -38, 127, 14,
   72, -23, -22, 100, 127, -126, 11, 4,
   81, -20, 62, -1, 28, 127, 15, 89,
   -4, -128, -39, -35, -10, -115, -62, 62,
   -44, -24, 15, 26, -3, -44, 98, 82,
   43, 45, 53, 86, -37, -17, 117, -104,
   -107, 33, -7, -28, -18, 45, 27, -127,
   37, 104, 10, 55, -28, 117, -58, -27,
   91, 105, -95, -70, 68, 61, 20, 14,
   -105, -45, 2, -34, 6, 9, -80, 42,
   65, -14, -76, 127, -96, -94, 80, 0,
   -42, -6, -32, 70, -14, 127, -57, -128,
   19, 78, 28, 124, -79, -42, 7, 14,
   89, -65, 127, 11, 64, 33, 110, 127,
   -38, -16, 12, 0, -40, -75, 29, -128,
   47, 112, 14, 9, -58, -63, 10, 37,
   127, -128, 42, 127, -48, 42, -38, 35,
   125, 80, 8, -50, 33, -61, -111, -21,
   121, 127, 66, 95, 97, -42, -21, -67,
   -101, 23, -11, 71, -28, 17, -81, 33,
   127, -4, 18, 50, -85, 127, -16, 108,
   9, -77, -44, -54, -52, 48, -32, 20,
   103, -4, -96, 21, -64, -39, 21, 109,
   43, -13, 4, -47, 44, -1, -62, -1,
   14, -22, 21, 56, 54, 15, -34, -47,
   -7, -42, 62, 54, 34, -17, -43, 27,
   -12, 64, 117, -37, -68, -10, -65, 53,
   127, 32, 59, -78, 47, 4, 9, 73,
   116, 77, 36, -55, -105, 35, 91, 18,
   13, 43, -128, -121, -128, 41, 32, 36,
   16, 24, -1, -64, -2, -44, -85, 122,
   -64, -10, -44, 112, 7, 65, 60, 2,
   -59, 94, 116, 6, 32, -128, 45, -123,
   -113, -4, 113, -37, -6, 63, 42, -44,
   34, 127, -127, 84, 47, 13, 80, 85,
   16, 10, 11, 21, 2, -39, 5, 6,
   45, 127, 47, 55, -16, -30, 114, 3,
   84, -29, -16, -24, 116, 113, -18, 8,
   79, 16, -30, -93, 102, 127, -16, 35,
   -51, -4, 51, 42, -13, -14, 57, 47,
   106, -96, 28, 16, 10, -44, 54, 70,
   70, 25, -3, -37, 42, -27, -5, 6,
   36, 30, 68, 24, -62, 77, -16, -48,
   -4, -51, -22, -2, 73, 119, 21, -112,
   89, 35, 2, -31, -36, -12, 70, 19,
   -121, 52, 5, -8, 127, 14, 122, 7,
   127, 99, 80, -65, -29, 101, -20, 38,
   -49, -14, 127, -81, -112, 34, -82, 127,
   1, 65, 37, -111, 67, -125, -128, 57,
   -93, -78, 2, 9, 28, 54, 104, -78,
   11, -70, 11, 31, -116, 127, 59, -38,
   -11, 7, 126, -127, -56, 41, -46, 31,
   -16, -119, -128, -27, -66, -28, 8, 87,
   123, 92, -49, 29, -87, -28, -42, 3,
   16, 60, 106, 42, 29, -6, -128, 5,
   -9, 67, -13, 72, 3, -17, 1, -71,
   -128, 44, -98, -9, 53, 127, -26, 127,
   13, -9, -52, -32, 29, -20, -54, 105,
   71, 29, -36, 9, -22, -65, -38, 32,
   115, -49, -90, -66, -45, 9, 24, 37,
   -17, 29, 58, -122, 6, 67, 76, -16,
   6, 63, 9, 0, 19, 48, 20, -63,
   -2, -23, 18, -35, 16, 119, 39, 20,
   127, -86, -31, -42, -105, 36, 26, 40,
   60, -85, -127, -115, -46, -39, 32, -128,
   -36, 121, -128, 3, -100, 8, -26, -31,
   41, -43, -31, 127, 49, 90, 127, 77,
   0, 34, -63, -16, -31, -84, -100, 94,
   52, 36, 9, -42, 75, -128, 14, -74,
   -124, 6, -54, -14, -17, 48, 127, -20,
   14, -50, 121, -105, 127, -31, -49, -77,
   126, -46, -54, -72, 10, -128, -12, 89,
   -30, 49, 69, 110, -10, 17, -115, 0,
   63, 10, 43, 58, 61, -117, 27, 103,
   81, 122, 8, -92, 89, 13, 18, 127,
   -14, 126, -4, 47, 97, 16, 27, 52,
   53, -71, 21, 118, -22, -36, 1, -89,
   0, 57, -37, -48, -13, -18, 30, -12,
   67, 4, 29, 42, -51, 87, -126, -56,
   -11, -126, 7, -41, 52, -128, -97, -4,
   -36, 86, -52, 56, -43, -28, -60, 39,
   12, 36, 13, 16, -37, -20, -3, 23,
   -56, 29, 26, 4, 7, 16, 39, -25,
   -5, -1, -22, -73, 10, 8, 28, -27,
   44, -24, -8, -51, 7, 13, 19, -2,
   -12, -25, -86, 8, -48, 22, 22, 49,
   -32, 19, 30, -3, -9, -12, 7, -26,
   127, -11, -19, -62, 85, -48, -8, -2,
   87, 11, 3, 15, 13, -46, -32, 11,
   27, 83, 56, 52, 15, -37, 55, 113,
   -6, -37, 31, 2, 41, 18, 23, 61,
   -128, -59, -31, -7, -30, 52, -13, 8,
   -12, 55, -42, 49, -62, 77, -128, -1,
   -5, 90, -6, 25, -54, -9, 74, 49,
   73, -15, 7, -6, -38, -23, 107, -19,
   -64, 42, 68, 48, -8, 31, -40, 13,
   41, -128, -33, -65, -14, -105, 67, 14,
   -26, -32, 17, 36, -14, -75, 35, 47,
   11, 20, 56, 65, 41, 127, 1, -5,
   33, 84, 29, -44, -5, 36, 25, -72,
   35, 18, 54, 51, -41, 30, -5, 43,
   -20, 61, 4, -16, 48, -32, 3, 4,
   30, -5, -82, -90, 12, 14, -22, 3,
   -19, -11, -33, 25, 1, 26, 4, -35,
   33, 32, 12, 22, 22, -4, -17, -9,
   -128, 23, -32, 45, -66, 39, 9, -41,
   -33, -41, 121, 30, -98, -4, 9, -91,
   49, 76, -3, -73, 26, 39, 48, 6,
   40, -37, -8, -20, 28, 26, -49, -72,
   1, 6, -119, -43, -9, 62, 127, -69,
   110, -13, 102, -65, 127, 117, 124, 63,
   -80, -26, 27, 106, 44, 3, -66, -9,
   -35, 27, 15, 10, 5, -22, -4, -20,
   57, 103, 52, 30, -34, -11, -54, 31,
   -30, 104, -22, 59, 24, -69, -102, -8,
   17, 57, 69, 49, -87, 27, 30, 36,
   -25, -18, -7, -38, -51, -29, 14, 111,
   -55, -9, -2, -30, 29, -3, -30, 54,
   27, 30, -36, -37, 6, 9, -49, -38,
   23, 4, -8, 90, 0, -5, 8, -31,
   127, -44, -34, -52, -73, -2, 32, -62,
   -94, -82, 100, 23, -40, 25, 42, -27,
   67, -87, -72, 16, 5, 34, 32, -39,
   126, -63, 68, -70, -76, 121, -8, 61,
   26, 61, 115, 20, 83, 19, 4, 31,
   0, 113, -33, 53, -14, 111, -17, 66,
   -47, 69, -26, -22, -119, -12, 2, 50,
   -59, -107, -69, 114, 22, 127, -84, 127,
   -81, -60, -33, 45, -49, 127, 0, 23,
   22, -19, 8, -36, 21, -61, -2, -17,
   50, -2, 36, -18, 23, -126, 104, 7,
   15, -30, -106, 4, -33, 57, 15, -9,
   -21, 73, 4, 56, -41, -26, -63, 66,
   -4, -111, 7, -15, 29, 18, -30, 24,
   -108, -68, 46, 77, 60, -63, -116, 31,
   47, 96, -54, 42, 38, -22, 13, -64,
   1, 50, 8, -16, 14, -2, -52, -44,
   -11, -15, 38, 17, 59, -26, -24, -14,
   -13, 42, -58, 91, -63, -23, -3, 92,
   -2, -21, 58, -44, -31, -65, 20, 64,
   4, 6, 41, -37, -3, -8, 3, -115,
   -125, -65, -113, -85, -7, -52, 25, -104,
   -62, 46, 18, -126, -79, -64, -5, 38,
   -5, 127, 38, -66, 12, -127, 56, -32,
   14, -121, -3, 16, 79, -22, 87, 120,
   -30, 7, 26, -26, 5, -6, -59, -128,
   -23, 42, 45, -127, -34, 80, -46, -71,
   82, -128, 60, 31, 14, 54, 30, -44,
   -53, 44, -45, 24, -51, -8, -61, 13,
   96, -5, 33, 6, 30, -128, 76, -6,
   -9, 26, -69, 23, -18, -60, 8, 99,
   -126, 15, -32, 23, 27, 20, -41, -100,
   -88, 22, -77, -88, 30, 12, -114, -128,
   43, 13, -77, -60, 69, -4, -70, -45,
   -72, -3, 43, -77, -11, 14, 9, -16,
   77, -2, -46, 11, 54, 43, -20, -8,
   55, -22, 28, -48, -24, -22, 54, -75,
   7, 34, -9, -81, 4, -72, -16, -49,
   71, -112, -80, 80, -12, -34, -9, 37,
   59, 43, -22, 80, 79, 78, -52, 4,
   1, -9, -121, 127, 12, 3, 57, -4,
   19, 24, -19, 85, -43, 61, 6, 69,
   -91, 24, -39, 52, -127, 48, -128, 12,
   -17, 12, -61, -41, -79, 94, -78, -58,
   -128, -8, -62, 16, 81, -126, 48, 65,
   58, 18, 35, 59, -23, -48, 28, -14,
   -22, 3, -25, 62, -22, 46, 98, 39,
   39, -46, -31, -25, 98, -24, 0, 20,
   11, 28, -1, -39, 40, -36, -25, -118,
   -5, -33, 0, 55, -58, -26, -41, 30,
   10, 32, 29, -79, -25, 21, 1, -31,
   33, -30, 75, 73, 56, 42, -3, 70,
   7, -29, -30, 14, 9, 92, -24, -84,
   -5, 49, -58, 35, 6, 39, -102, -77,
   -34, 9, 77, 13, -14, -50, 49, -25,
   127, 18, -48, 19, -42, 1, -37, 0,
   -126, -97, -62, 6, 6, -22, -32, -29,
   28, -10, -37, 15, -58, 17, 5, 42,
   -51, -8, -46, -106, 92, -63, -102, 34,
   -4, -55, 108, 37, -105, -61, 15, -76,
   20, -41, 2, 75, 71, 15, 73, -128,
   117, -29, 14, 51, 27, -20, -23, -7,
   -85, 127, 33, 44, -82, -98, -71, -117,
   53, 78, 2, -4, -13, -11, 22, -57,
   7, -51, -128, -10, 35, -48, -70, 41,
   -66, -57, -2, -42, 67, 55, 85, 34,
   -14, -24, -8, 61, -6, 22, 91, 22,
   -61, -2, -119, -64, 17, -11, -40, -74,
   -32, 95, -81, 50, 60, -26, 127, -127,
   -1, -38, 81, 66, -3, 15, -13, -10,
   -15, -48, 78, -54, -10, -41, -39, 69,
   48, -7, -7, -5, 42, -12, 6, 34,
   -36, -2, -24, -79, 43, 16, 44, -16,
   -7, 35, -17, 19, 13, 19, -17, -18,
   16, 26, -24, -32, -7, 19, 19, -2,
   64, -39, 35, -32, 79, -5, -30, 74,
   34, 43, -28, 16, 10, 5, 8, -26,
   70, 103, 81, 9, 25, 22, -30, 41,
   36, -38, 127, 43, -55, 15, 2, 21,
   0, 29, -56, 25, -42, -40, -75, -1,
   -20, 127, 56, 54, 7, -64, -110, 57,
   -35, -109, 5, 76, -30, -19, 57, -23,
   32, 31, 16, 5, 33, 28, 72, -17,
   -19, 48, 53, 34, 0, -35, -4, -66,
   8, -39, 54, -8, -5, -88, -13, 13,
   -19, -22, -11, 11, 28, -42, -48, -19,
   15, 71, 56, 35, -47, 127, -10, 32,
   34, -12, 35, 36, 2, -24, 23, -34,
   21, 11, -106, 6, 18, -8, -31, -69,
   -39, 46, 26, -98, 40, -56, 3, 35,
   -14, -1, 1, -33, 2, -11, -3, -17,
   -30, 68, 32, 32, -14, 5, -64, -30,
   -70, 21, 66, -50, -44, -22, 14, -42,
   49, 46, -126, 49, -60, 9, -1, -56,
   -19, 81, 60, 20, -114, -2, -100, -5,
   -39, 18, 66, -71, -24, 49, 81, -27,
   15, -33, 107, -105, -102, 21, 0, 60,
   21, -34, -17, 6, -1, 49, 48, 4,
   85, 8, 8, 31, 78, -27, 102, 5,
   66, 3, -11, 34, 33, 19, -21, 36,
   -44, -1, 9, -11, -43, 68, -24, 31,
   59, 35, 61, 13, -51, 17, 3, -128,
   -9, 22, -21, 37, 50, 7, -47, -30,
   -31, -47, 26, -55, -13, 63, -27, -25,
   -13, -45, -127, -14, -23, -37, -7, -3,
   -20, -16, -1, 28, 9, 85, 14, 17,
   -7, -3, 79, 14, 17, -71, -44, 59,
   -4, -1, -26, -26, -17, 12, -23, -40,
   23, -29, 46, -6, -31, -2, -3, -91,
   115, 31, 123, -14, 18, 0, -13, -5,
   94, 22, -126, 79, -21, 16, 57, -99,
   -5, 43, 0, -4, -64, 25, -65, -2,
   76, -3, 48, -29, 122, -44, 88, 17,
   -128, -128, 103, -18, -55, -20, -23, 33,
   4, 87, -15, -84, 8, -28, 69, 4,
   0, 125, 37, 54, 14, 51, 6, 110,
   -92, -77, -53, 119, -43, 67, -28, 41,
   -21, 32, 3, -39, 31, -27, -8, 69,
   67, 66, 94, -22, -20, 10, -30, -58,
   -35, 39, -43, 1, 16, -6, -9, -12,
   -8, 3, -20, 12, -2, 25, 17, -30,
   31, -11, 59, 67, 14, -8, 55, 0,
   -30, 22, 127, 60, 73, -6, 79, -9,
   -47, -74, -59, 19, -5, -46, -39, -13,
   -9, -44, -102, 13, -46, -18, -14, -55,
   -19, -13, -64, 57, 24, -39, 40, -30,
   -61, 15, 18, 2, -3, -11, 52, -26,
   73, 70, -24, -95, -29, -40, 8, 5,
   118, -22, 35, -61, -68, 3, -8, -29,
   -9, -46, -2, 10, -52, 66, 64, -6,
   5, -55, 35, -46, -81, 9, -70, 82,
   -18, 71, -94, 15, -82, 87, 18, -43,
   23, -15, -19, 89, 107, 2, -62, -28,
   -4, -22, 11, 75, 9, -56, -84, -85,
   90, 42, -43, 76, -35, 127, 89, 38,
   68, 73, 20, 55, 40, 16, 19, -45,
   7, 38, -35, -21, 4, -20, 0, 84,
   31, 24, 41, 39, 11, -38, 48, -9,
   14, 4, -47, 1, 16, -12, 18, 42,
   -7, -53, -74, 71, -17, 16, 17, -2,
   4, -2, -65, -35, 23, 27, 14, -45,
   33, 50, -30, 9, 7, 29, 30, 17,
   19, -6, 75, -4, -25, 9, -30, 80,
   5, 28, -124, -7, -8, 33, -19, -92,
   -27, 22, 3, 22, -6, 66, 44, 22,
   68, 58, -75, 22, -17, -24, 64, -34,
   39, 18, -18, 25, 21, 29, 47, -24,
   28, 57, -37, 64, -24, 8, -21, 35,
   0, -68, -50, 73, 32, 30, 104, -30,
   -80, 104, 19, 30, -15, 1, -23, 38,
   -58, -118, -74, 43, 3, -18, -123, 18,
   -20, 8, -6, 71, -52, 37, 50, -68,
   -26, 85, -30, -16, 30, -70, -124, -25,
   43, 5, 8, -51, 25, -105, 12, 12,
   12, -1, -7, -36, -38, 32, -31, -72,
   4, 16, 9, 3, 30, 85, 13, 10,
   66, 7, -45, -15, 29, -73, 11, -56,
   -15, -128, -48, -60, -54, -14, 16, 35,
   -54, 39, 34, 44, 57, -36, 74, -100,
   -79, -31, -36, 57, 6, 24, -72, -48,
   59, -20, -102, -82, 8, 127, -103, -96,
   64, 0, 14, 14, -14, -81, -57, -71,
   -6, -5, 28, 4, 1, 3, 51, 77,
   6, 80, -67, -16, -2, 10, 45, -3,
   -2, -26, 23, -32, -15, 35, 41, 27,
   41, 7, 9, -5, 27, 3, 57, 70,
   24, -29, -20, 82, 78, 23, 4, 73,
   -56, 74, 33, -37, -16, -90, -2, -104,
   -36, -64, -39, 127, 40, 50, 12, 7,
   67, 2, 41, 59, -44, -45, 24, 31,
   -11, -16, 61, 16, -55, -60, -29, -6,
   -28, 127, -25, 18, 4, 25, 55, -11,
   -36, 23, -39, 39, 30, -14, 56, 17,
   9, 1, -29, 13, -18, -4, 5, 25,
   -47, 63, -15, 15, 8, -8, 18, -31,
   34, -38, -39, 49, -12, -37, -63, -14,
   -7, -12, 32, -44, 4, -13, -19, -14,
   74, 48, 3, 42, 127, 25, -9, 40,
   -7, -48, 34, -86, 12, 127, -12, -36,
   35, -86, 90, -44, -128, 50, -47, -128,
   -77, -77, 74, 111, 26, 6, 27, 14,
   50, 76, 20, 19, 23, 22, -56, 6,
   60, -14, -8, 49, -23, 8, 58, 22,
   -25, 14, -42, 127, -6, 22, -41, -18,
   -35, -8, 16, -18, 18, -41, 55, 53,
   -39, -58, 36, -46, -71, -33, 2, -52,
   -67, 33, -125, 55, -11, 5, -89, 13,
   -25, 58, 127, 68, -4, -25, 26, -59,
   -113, 23, -7, 85, -17, -119, 35, -99,
   -3, 42, 13, -18, -37, -41, 10, -52,
   -5, 5, -23, -52, 11, 21, -22, -31,
   2, 97, -18, 47, 127, -31, 37, 25,
   35, 30, -59, -5, 0, -22, -95, 36,
   -78, -10, 33, -17, -29, 7, 14, -35,
   59, 3, 22, 6, -51, -6, -38, -22,
   -29, -22, 17, 9, 74, -2, 81, 3,
   -28, -33, 39, -44, -14, 79, 18, -18,
   8, -23, 7, 40, -96, 12, -52, -128,
   -78, -25, 59, -1, -19, 83, -14, 97,
   50, 34, 125, -2, -29, -21, 18, -45,
   74, -16, 14, 39, 49, -9, -44, 45,
   10, 59, 34, 57, -16, -10, 48, -55,
   24, 3, 6, 18, -14, -59, -22, 34,
   -18, -59, -4, 12, 18, 25, -7, -19,
   -21, 44, 1, -77, -18, 51, -1, -14,
   52, -11, 49, 30, 26, 6, -36, 29,
   -127, 19, 21, 52, 7, 10, 42, -3,
   27, -17, -20, 23, -62, 27, -6, -45,
   -1, -3, -25, -41, -31, 20, 32, -27,
   35, -17, -51, 37, 12, -31, 1, 83,
   86, 37, 0, -19, 38, -21, 7, 38,
   -33, -37, 7, 23, -1, -41, -59, 2,
   -28, 29, 17, -10, 0, -32, -17, 11,
   -59, -38, 46, -96, 57, -41, -79, -94,
   96, -7, 57, 86, 68, -91, -15, -30,
   -5, 36, -5, 113, 127, 67, 59, -10,
   9, 108, 24, -93, -16, 65, -22, 100,
   -1, -10, 49, 39, 44, 7, 127, -68,
   -89, 31, 77, 85, 66, 32, -43, 127,
   -46, 29, 96, -128, 31, -61, 31, 34,
   57, -31, -72, 93, -121, 126, -78, 18,
   -84, 10, -68, 72, 117, 48, -97, -34,
   28, -20, 20, -128, 13, -45, 50, 66,
   118, -44, -128, 28, -22, -35, -63, -37,
   57, -2, -2, -127, -41, -3, -48, 9,
   14, 14, 39, -84, -3, 19, 88, -24,
   -39, 14, -6, 28, -41, 9, 51, 59,
   -5, -77, 2, -54, -128, -34, -7, 26,
   127, -71, 30, -62, -6, 32, 82, 67,
   45, -54, -13, -47, 25, 57, -128, -6,
   72, -42, 11, 24, 30, -10, 35, 79,
   89, 127, 87, 62, 72, 50, 48, -10,
   77, 16, 6, 108, 47, 60, 54, 9,
   63, 54, 99, -12, 43, 25, -8, 22,
   32, 58, -124, 61, 108, 20, 9, 8,
   -13, 46, -28, -21, 40, 90, 77, -51,
   -99, -78, 32, 19, -36, -20, 123, -24,
   -7, -28, -64, -24, 17, -3, -8, 19,
   -7, -128, -13, 9, -46, -23, -15, -16,
   14, 4, -28, -37, -46, -35, -66, -38,
   -51, -18, -53, -23, -17, 17, 72, 17,
   117, -27, -82, 111, -44, 79, 38, 4,
   127, -40, -63, -82, -36, -128, -49, -25,
   -7, -14, -6, -30, 38, 37, -73, -56,
   46, 47, -3, 44, 4, 36, 15, -21,
   -5, 64, 51, 54, -39, 18, 48, 55,
   90, 2, -49, 29, 20, 27, -13, 6,
   47, 12, 66, -36, 8, 11, 1, 22,
   -16, -54, -18, 2, 7, 19, -95, -72,
   -64, -91, 127, -11, 43, 11, -44, -33,
   49, 12, 26, 116, -14, 16, 13, 86,
   49, -17, 69, 6, 43, 64, 89, 69,
   77, 16, 17, 23, -19, -15, 37, 48,
   82, 64, 22, -1, -24, -13, 112, 20,
   -65, -128, -9, 57, 23, 67, 83, 91,
   -20, 13, 30, -42, -10, -64, 68, -15,
   -12, -121, 46, 54, 100, 32, -36, -61,
   68, 9, 19, -8, -71, 13, 9, -3,
   46, 75, 103, -67, 40, -60, -124, -69,
   127, -72, -92, 119, -13, -32, -57, 15,
   95, -20, -75, -92, -34, 25, -69, 41,
   26, 47, -40, 34, -67, 21, 51, -7,
   -7, -29, 0, 64, -66, -3, 27, 23,
   38, -31, -5, -24, -5, 47, -5, -10,
   -30, -46, 18, 40, -20, 25, 27, 33,
   31, -32, 10, 88, -26, -21, -7, -9,
   -8, 52, -30, -18, -7, 27, 96, 54,
   -20, -21, 103, 79, 121, 52, -69, 43,
   22, 38, 44, 104, -27, -113, 55, -29,
   -15, 54, -39, -59, 79, 23, 40, 93,
   104, 14, -39, 53, -7, -38, 95, -1,
   110, 127, 35, -33, 24, -32, 123, 17,
   30, -82, 16, 38, 48, 109, 3, 27,
   36, 5, 12, -25, 61, -16, -25, 0,
   -31, -55, 76, -59, 84, 74, 45, 31,
   35, 12, -12, -63, -31, 21, -41, 54,
   -52, 2, 46, -128, 32, -76, -66, -28,
   59, -57, 27, 127, 3, -33, -33, -82,
   102, 26, -20, -18, 6, -27, 71, -42,
   11, 56, -32, -46, 11, -72, -31, -80,
   -34, 2, -1, 62, 20, 11, -20, 8,
   73, -50, 27, 37, -1, -16, 4, -50,
   -60, -20, -16, 14, -56, 65, 49, -5,
   12, 12, -17, -64, -14, 7, 70, -43,
   -25, 24, 17, 20, -100, -4, -32, -21,
   35, -28, 47, -2, 12, -40, -16, -52,
   81, 13, -45, 38, 37, 38, 17, -35,
   31, 76, -12, 74, 44, -23, 2, 83,
   -24, 3, 58, -89, 26, -9, -3, 33,
   18, -3, -20, -3, 8, 5, 87, 114,
   -96, 14, 62, 7, -33, -13, -29, 46,
   -32, -45, -69, 23, -18, 0, -80, -14,
   8, 52, -26, -35, -41, -35, 11, 63,
   4, -116, 39, -38, -13, -6, 88, 57,
   33, -37, -9, -21, -28, -13, -44, 50,
   30, 19, -126, 44, -14, 15, -52, -66,
   81, -78, -124, -30, -2, 33, 17, -128,
   16, 32, -20, 25, -17, 19, -6, 14,
   4, 34, 19, 45, 24, 43, 18, -8,
   -26, -23, -5, 31, 43, 70, 16, 100,
   43, -34, 10, 15, 24, -16, 20, -5,
   31, 0, -15, -23, 20, -8, -71, -60,
   -23, 12, 33, -11, 24, 10, -14, 23,
   65, 64, -8, 45, 0, 3, -29, -36,
   -65, 2, -38, -15, 12, 4, 3, 35,
   -7, -8, -2, 1, -61, 43, -24, -6,
   42, -13, 2, 0, 0, -6, 8, -37,
   -12, 100, -98, -4, -8, 23, -8, -32,
   -31, 6, -8, -3, 40, -14, -36, 18,
   -3, -33, 11, 14, -2, -18, 51, -46,
   19, -2, -85, 20, -5, -21, 16, -13,
   83, 50, 15, -14, -32, 11, -15, 16,
   -24, -48, 8, -39, 11, -15, -43, 54,
   -23, 104, 28, 26, 29, 22, -38, -19,
   44, -9, -32, -21, -3, -37, -8, 42,
   44, 41, 6, 1, -16, -33, 14, -35,
   30, -5, -26, -15, 2, 15, -8, -28,
   15, 4, 21, 8, 9, -9, -8, 4,
   37, 28, 4, 29, 4, -8, 28, -52,
   -19, -13, 8, 2, -20, 54, -3, 11,
   -4, -7, 28, 28, 25, -22, -42, -40
};

static const rnn_weight noise_gru_recurrent_weights[6912] = {
   -38, 20, -14, 47, 8, 24, 64, 13,
   14, -27, -27, 9, 7, 39, 13, 46,
   -11, 48, 11, 10, 27, -6, 23, -2,
   -9, 63, 20, 20, 45, 21, 18, 5,
   40, 34, -7, -15, 48, 7, 2, -27,
   -18, -18, 45, 39, -50, -33, 67, -18,
   -26, 24, 5, -9, -24, 19, 14, 23,
   -3, 23, -7, 30, -28, -8, -30, 17,
   19, 26, 11, 47, -20, 15, 23, 19,
   -26, -17, 40, -40, 19, -13, 17, 0,
   23, 18, 20, 4, 12, 0, -13, 33,
   -19, 20, 1, -18, -4, 1, -40, 1,
   47, 21, -13, 11, -24, -65, 30, 2,
   45, 25, 33, -6, 11, 11, 20, -18,
   10, -38, -15, -33, -20, 34, 37, -31,
   48, -29, 57, 19, 51, 8, 58, -9,
   -12, -1, -38, 38, 22, -53, 9, -7,
   6, 67, 37, 7, 62, 56, -22, 13,
   -17, 36, -57, 45, -14, 41, 114, 101,
   2, 45, -10, 16, 59, 29, 36, 11,
   -84, 4, -60, -14, 25, 25, 58, 109,
   24, 45, -9, -7, 65, 1, -12, -40,
   -35, 127, 28, 26, 32, -23, -40, -13,
   33, 13, 27, 67, -3, 8, 22, -25,
   -16, 16, -1, 8, -11, -77, -23, 46,
   9, 3, 53, 8, -9, 15, 24, 0,
   -4, -22, 40, -25, 11, 4, -17, 38,
   -14, -2, 45, -39, -10, -7, 14, 0,
   21, -50, 12, 44, 7, 70, 54, -15,
   26, 19, 5, 9, 62, 10, 29, 26,
   -7, 55, -5, -35, -12, -21, -25, -28,
   -25, -11, 37, -22, -15, 5, 12, 8,
   6, -30, 37, 14, -15, 51, 1, 32,
   32, 12, 61, 2, -5, 28, -7, 45,
   8, -6, 46, 30, -4, 45, 45, 18,
   63, 59, -52, 55, 89, 51, -12, 29,
   3, -29, 48, 7, -4, -24, -39, 37,
   61, -10, 38, 6, -36, -7, -4, -39,
   4, -5, 34, -33, 6, -26, -43, 23,
   -62, 11, -10, 14, -18, 25, 65, -6,
   -26, 6, -19, -50, -90, 65, 2, 10,
   -9, 49, 39, -51, 38, -17, 38, 116,
   -24, -21, -16, -20, 20, 16, -17, 4,
   -26, -1, -3, -7, 12, -17, 69, 24,
   7, 3, -8, 23, -10, -32, -7, -28,
   -20, 13, 9, 18, -16, -12, 4, -34,
   24, 28, -15, -11, -21, 7, -12, 33,
   -28, -16, -21, 118, -32, -14, -19, 0,
   3, -20, -18, 30, 15, 26, -3, -9,
   2, 24, 27, 17, -7, 32, 18, -19,
   20, 1, -13, 18, 10, -1, 56, 29,
   48, 9, -19, -60, -27, 28, 23, 4,
   44, -15, 10, 27, 30, 36, 61, 5,
   -45, -3, 23, -3, 13, -16, 16, 45,
   -43, -19, 0, 3, -44, -10, 30, 0,
   -41, -52, 18, -18, 28, -41, 12, -2,
   -5, -22, 44, -32, 37, -37, -3, -15,
   -16, 14, -32, -108, 8, -43, -14, 55,
   -22, 31, 40, -25, 13, -50, -26, -42,
   -49, 9, -30, 33, 6, 77, 7, -36,
   47, -33, 4, -39, -19, -39, 13, -1,
   1, -17, 46, -45, -15, -8, -3, -14,
   11, 21, 4, 44, 13, -14, -18, 22,
   -27, 36, 2, -26, 13, -43, 2, -42,
   5, 28, 39, -24, 3, 15, -38, -17,
   -2, -28, 0, -21, -36, 13, 17, 3,
   -6, 7, 30, 15, 78, 28, -34, 3,
   -66, -16, 1, -29, -11, -29, 39, -29,
   -21, 33, -2, -6, 32, -34, 15, 24,
   -41, 1, 19, 57, 26, 12, -5, -4,
   -59, -45, -36, -14, 4, -33, -24, 34,
   -44, 21, -9, -8, -1, -20, 42, 24,
   41, 34, -58, -26, 30, 61, 26, 28,
   -87, 28, 10, -8, 12, 18, -23, 1,
   22, -29, -3, -23, -8, -7, 20, 26,
   -12, -39, 45, -9, -47, 9, 6, 11,
   -81, -52, -41, -9, 22, 42, -10, -11,
   -15, 25, 16, -2, 6, 70, 8, -9,
   -24, 27, 21, -46, 8, 43, 27, 13,
   -46, -2, -2, 9, 19, -3, -5, 33,
   37, 11, -18, -12, 15, 20, -38, -11,
   33, 24, 12, -2, 0, 29, 1, 2,
   -34, 83, 10, 9, 1, -14, 0, 15,
   -11, -53, 28, -21, 1, -25, -74, 19,
   8, 36, -31, 44, -11, 67, 78, 0,
   -4, 7, 37, -10, 20, -43, -1, -34,
   25, 10, 37, 40, -17, 30, -15, -1,
   -3, -37, -15, -29, 2, -36, -2, 11,
   69, 52, 43, 10, 18, 10, 48, 3,
   5, 12, 32, -48, 22, 19, 28, 40,
   1, 54, -9, -50, 107, -74, -74, -46,
   -15, 49, -16, 15, 30, 30, 8, 20,
   4, 16, 1, 46, -8, -35, -116, 21,
   23, -48, 0, 39, -2, -66, 52, -57,
   37, -10, 21, -30, 26, -9, 56, -53,
   35, -9, -2, -16, -21, -128, -16, -24,
   42, 9, 54, 19, -18, -10, -6, -23,
   31, 65, -37, 8, -9, -2, -6, 33,
   -8, 14, -4, 13, -29, -20, 19, -5,
   -55, 7, 9, 13, 18, -8, 15, -3,
   -9, 6, 12, -16, 2, -36, -9, -15,
   32, 56, -27, 15, -22, 26, -9, 41,
   15, 32, 64, 45, 47, 17, 14, 9,
   -42, 66, -22, -5, 18, -9, -69, 5,
   15, -3, -27, -6, 39, 36, 92, -7,
   12, -3, 33, 15, -52, 54, 1, -10,
   1, 0, 22, 10, 48, 30, -21, -27,
   -10, 11, 1, 23, -46, 0, -22, -29,
   -11, -5, 26, 0, 23, 54, -40, 8,
   17, -19, 21, -16, 11, -2, 2, 58,
   28, 17, 17, 40, -2, -63, -33, 4,
   -41, -27, 4, 30, -1, 7, 4, 37,
   -25, -23, -8, 1, -2, -16, -8, 26,
   5, -39, 17, -37, -3, -48, -6, 21,
   -35, 11, -85, 24, -23, -1, 10, -19,
   -79, -10, 4, -18, 3, -14, -28, 55,
   22, -38, 10, -24, -10, -46, 31, -45,
   30, 12, 11, -18, 31, 10, -20, 11,
   -32, 28, -15, -20, -70, 16, -34, -38,
   -16, -11, 10, 10, 2, 6, -3, -4,
   16, 61, 30, 46, 28, -43, -9, -2,
   -59, -5, 20, 0, 4, 19, -38, 19,
   37, 38, -28, 4, -38, -1, 3, -14,
   9, 8, 44, 33, -35, -15, 24, 1,
   3, 25, 10, -15, -4, 5, -5, 11,
   -16, 42, 20, -27, -12, 3, 13, -11,
   -18, 42, -58, 31, 8, 35, 27, -23,
   12, -107, 14, -23, 43, 2, -5, -1,
   22, 31, 22, -7, -20, -20, 33, -2,
   37, -39, -15, 9, 15, 1, -40, 13,
   -10, -14, -14, 55, 78, 7, -22, -17,
   2, 39, 35, 37, -7, 41, 7, 0,
   -32, 2, 31, 28, -28, 0, 25, 25,
   -3, -11, 44, -1, 10, -8, -25, 29,
   -46, 8, 36, 4, 37, 13, 25, 22,
   22, 16, -21, 24, 40, 24, 1, -9,
   -6, -22, -12, -26, 26, -17, 32, 1,
   -18, 0, 45, -50, -18, 2, 5, 30,
   37, 66, 43, 29, 28, -12, 15, 34,
   -6, 0, 3, 32, 44, 31, 15, 22,
   13, 25, -84, 61, 54, 12, 38, 14,
   43, 44, -1, 57, -9, 23, -27, -2,
   11, -6, -16, 4, 27, -51, -17, 27,
   -40, 25, -3, -2, 7, 13, -19, -16,
   5, -13, -18, -9, 51, -58, -31, 15,
   -12, -33, 30, -5, 36, 24, 13, -3,
   17, 6, 17, -37, -33, 43, -7, 38,
   2, -9, 12, -19, -43, 12, -21, 29,
   13, 11, 4, -36, -57, -28, -2, 22,
   -60, -30, -11, -31, 56, 54, -6, -21,
   51, -45, -53, -74, -43, 16, -10, -6,
   -7, 23, -31, -50, -75, 6, 29, -7,
   28, 6, -25, -37, -65, -8, 51, 41,
   -52, -16, 5, -57, -3, -10, -14, 4,
   7, -9, -1, 5, -21, 16, 3, 14,
   22, -25, -27, 5, -54, -6, -8, 16,
   97, 28, 20, -51, -26, -32, 18, -15,
   42, -33, -47, 21, 52, 8, 26, 57,
   21, -52, 18, -47, 20, 46, -14, 80,
   34, -33, 42, 7, 5, -46, 39, 34,
   -65, -2, -42, -1, 30, -18, 16, 43,
   52, -22, -18, -50, 58, 84, -1, -34,
   -11, -26, 0, -37, 14, -52, -68, -35,
   60, 20, -32, -33, -10, 22, -3, -14,
   -5, -1, -72, -37, -8, -29, -8, -56,
   -11, -16, 18, 25, -30, 4, 58, 6,
   34, 60, -11, -13, -117, -18, 27, 25,
   1, -41, 12, -67, 7, -45, 19, 19,
   1, -14, 5, 1, 25, 1, -53, 13,
   -25, -12, -55, -21, -12, -27, -22, 19,
   -45, -37, -24, -9, 7, 2, 10, 58,
   -42, -11, -7, -4, 15, -20, 1, 16,
   -65, -4, -13, 2, 25, -1, 51, 14,
   -17, -27, -108, -46, -11, 24, -7, 12,
   -32, -37, 18, -12, 22, 34, 36, -32,
   72, -9, 21, -6, 15, 10, 50, 9,
   3, -8, 44, -14, -20, -20, 20, -6,
   -11, -38, 28, -19, 8, -24, -34, 18,
   40, 55, 31, -14, 29, 1, 8, 25,
   57, -30, 16, 57, -19, 36, 37, -2,
   20, 88, -50, 32, 44, 14, 38, 46,
   -30, 105, -26, -4, 8, -38, -11, 39,
   11, 7, 4, 30, 5, -17, -35, 63,
   127, 22, -2, -63, 56, 50, 6, -27,
   7, 27, -12, 36, 3, -6, 13, -43,
   36, -64, -18, -17, -24, -40, 2, -14,
   13, -15, 42, -29, 53, 2, -13, 49,
   -15, 16, -32, -7, -28, 11, -4, 4,
   -2, 44, -29, 11, 20, 27, 7, 62,
   -20, -17, 37, -13, 16, -18, -46, -3,
   26, -27, 16, -7, 8, -6, 4, 16,
   -22, 9, 29, -18, 2, 3, -7, 20,
   16, 0, 20, 22, -2, -3, 14, 7,
   25, 0, -12, 20, 5, 27, -11, -11,
   11, -26, -12, 23, 26, 50, -15, -6,
   26, 31, 15, 84, -33, 36, -28, -13,
   -35, 9, -35, 16, 27, -2, 1, 21,
   20, 10, 6, -4, 24, 48, -3, 4,
   9, -26, 2, -59, 5, -26, 14, 18,
   -4, 52, -9, -43, -13, -22, -2, 35,
   24, -7, 30, 5, -43, 3, -21, 39,
   1, -43, 16, -18, 9, -49, 12, -7,
   35, 2, -14, -1, -37, 20, 24, 37,
   4, 13, 45, -46, 18, 36, 41, 3,
   -21, -18, 19, 33, -5, -26, 8, -18,
   -20, 7, -15, -2, 22, 14, -52, -33,
   6, 15, -3, -66, 18, -21, 36, -21,
   8, 20, 24, -21, -1, -24, 23, -60,
   2, -7, -14, -3, -40, -15, 31, 18,
   34, -25, 19, -22, 27, 8, -13, 10,
   46, 35, -47, 17, 0, 16, 1, 31,
   -12, -66, 38, -43, 14, 4, 7, 21,
   -3, 74, -2, 35, 41, 17, 19, 53,
   -43, 61, -2, 14, 28, 19, -21, -73,
   31, -14, 19, 17, -9, 49, -3, 22,
   -39, 4, 12, 21, -11, -31, -24, 29,
   -4, 49, 69, 37, 71, 51, -1, 85,
   -47, 39, 2, -2, 7, 73, -13, 58,
   10, 49, -54, 50, -17, 11, 2, 10,
   -6, 24, 34, 125, 14, -12, 17, -3,
   -14, 91, 48, -7, 17, 34, 23, -3,
   -74, 32, 28, 23, 23, -20, 93, 21,
   -12, -6, 21, -35, -18, -15, -29, -23,
   23, -40, 58, -15, 5, -19, 27, -27,
   31, -6, -33, 7, 26, 10, 27, 20,
   16, 49, -4, 11, -64, -31, 5, 15,
   2, -3, -14, 0, 46, -54, 35, 38,
   16, -13, -15, -45, 11, -32, 12, 52,
   54, 43, -35, 10, 5, -24, 7, -1,
   -24, -2, 20, -23, -18, -33, 55, 8,
   25, 10, -16, 14, 32, 32, 23, -24,
   -30, -10, -6, -19, 27, 38, -13, -26,
   -33, 29, 9, -28, 19, 13, 22, -25,
   63, -29, 24, 13, 24, -13, 2, 19,
   -8, -16, -6, 3, 22, -16, 8, 27,
   -5, -6, -34, 31, -11, 4, 2, -2,
   -41, 34, -16, -21, 11, 10, -45, -23,
   17, 7, 35, 50, -5, 59, -71, 34,
   24, 3, -43, 7, 14, 48, 12, 9,
   -33, -21, 32, -34, -53, -15, 3, 75,
   -2, -7, -13, 26, -17, 75, 50, 13,
   -15, 50, -28, -23, 50, -16, 61, -15,
   6, -27, -1, 5, -2, 17, 3, -8,
   9, -20, 21, -15, 3, -19, -22, -20,
   24, 30, -18, -33, 17, 16, 21, 52,
   46, -23, -37, 40, -11, -39, 64, 20,
   0, 44, 26, 35, 20, 40, 56, -3,
   -11, -10, 37, -22, -10, 16, 21, -15,
   -19, 40, 26, 42, 0, 29, 44, -60,
   26, 45, -53, 23, 56, 20, -13, 22,
   -9, 17, 64, -28, 66, 3, -24, 6,
   -67, 4, -21, -9, 19, 0, -17, 31,
   0, 2, -3, 45, 8, 40, -37, 2,
   -7, -77, 16, -1, 85, -41, 57, 96,
   -42, -57, 1, -27, 27, 16, -36, -128,
   36, -81, 21, -36, 9, -27, 13, 22,
   5, 34, 3, -4, -49, -22, 12, 1,
   -17, -27, 41, 37, 25, -2, 32, -9,
   5, -16, -27, -19, -20, 7, -3, 76,
   21, 0, 0, 13, -20, -25, -7, -69,
   -27, 3, 37, 25, -94, 12, 66, -3,
   32, 1, 9, -38, -20, -2, -17, 40,
   5, -58, -34, -5, -29, -24, -14, 50,
   -1, -15, -28, 47, -51, 6, -21, -2,
   31, -12, 120, 5, 5, -18, -13, 6,
   15, -47, 27, 6, 54, 59, -6, -12,
   16, 9, 21, 15, 39, 35, -49, -8,
   66, 33, -3, 64, 2, -16, 4, 18,
   6, 29, -10, 7, -4, 8, 28, 62,
   -24, -10, -22, 15, 41, 29, 14, 54,
   24, -51, -66, 0, 30, 54, -17, -17,
   -30, -15, 45, -5, -43, 32, -15, 19,
   4, 1, 40, -33, 5, -64, 19, -36,
   49, -33, 0, 40, -3, -17, -18, 6,
   -15, 1, -4, -34, -23, 17, -47, 14,
   -15, -40, -31, 4, 47, 34, 32, -14,
   -53, -4, 8, 12, -26, -16, -9, 15,
   2, 0, 51, 21, 13, 64, -47, -34,
   3, -28, -27, 0, -42, -23, -44, -40,
   2, 0, -29, 13, 26, -9, -17, 4,
   -47, 8, -29, 24, 9, -25, 12, -47,
   29, 4, -8, -19, 2, 16, -18, -33,
   -25, 31, 29, 24, 38, -4, 14, -7,
   25, 26, 52, 6, -11, 1, -19, 10,
   -39, 15, -8, 7, 14, -13, -13, 40,
   25, 11, 42, 15, 38, -23, -29, -11,
   17, 24, -7, 41, 40, 34, -1, -15,
   26, -18, -22, 5, 9, -5, -44, -12,
   -42, 7, 5, 85, -16, 47, -8, -26,
   -12, -35, -36, -13, 42, 45, -50, -40,
   -32, -2, 22, -48, 45, 32, 18, 56,
   6, 46, -35, 5, 41, 7, 5, -37,
   49, 38, -27, -17, 31, 22, -38, 6,
   6, -55, -88, 30, -7, -16, 8, 13,
   20, -7, -7, -8, 25, 58, -11, 50,
   -15, 41, 26, 34, 0, 28, -41, -17,
   -13, -33, 6, 38, 19, 0, 13, -9,
   -27, -3, 10, 4, 0, -9, 12, 4,
   6, -27, -10, 36, 28, 36, 4, 23,
   14, -43, 17, 50, 72, 49, -18, -20,
   1, 41, -40, 17, 42, 11, -5, 0,
   -23, 1, 90, 22, -32, -38, 21, -29,
   -11, -57, 10, -1, -7, 29, 27, 14,
   -5, -4, 26, 32, -17, 44, -62, -19,
   20, 34, -6, -11, 23, -1, 1, 18,
   52, -9, 3, 55, 27, 38, 25, 12,
   22, 3, -31, 15, -22, 16, -5, -28,
   -2, -58, -24, -33, 2, -34, -36, -56,
   -34, -31, -33, 50, -6, -2, 24, -19,
   -23, 52, -26, -13, -26, 7, -22, -13,
   22, -35, 18, -32, 37, -35, 14, -5,
   8, -38, -51, 24, -12, 9, -8, -45,
   -30, -18, -9, 55, 28, 28, 39, -29,
   -20, 47, 56, 36, -30, 4, -12, -13,
   -9, 10, -22, -23, -10, -27, 12, -19,
   52, -29, -38, 26, 12, 9, 47, -19,
   -5, 20, -55, 13, -23, -4, -8, 4,
   -31, -4, 72, 23, 110, -20, 27, 18,
   -9, -1, -9, 32, 9, -33, -18, -3,
   38, 7, -26, -7, 3, 8, -16, -15,
   15, -10, 22, -17, -38, -1, -14, -21,
   -33, -20, 41, 1, -6, 1, -38, -33,
   -50, 0, -35, -29, -8, -23, 0, 1,
   4, -6, 2, 60, 34, -27, 30, 25,
   -51, -54, 13, -41, -78, 25, -13, -23,
   -53, 20, 6, -26, 24, -16, 25, -2,
   -11, -56, 4, -60, -25, 0, -70, 39,
   -47, -55, -52, -38, 27, -1, -21, 10,
   10, -46, -119, -65, -27, 7, 16, -47,
   37, -30, -12, -31, -19, -48, 23, 55,
   -41, 29, -68, -34, -64, 20, 33, 55,
   -19, -6, 6, -3, -3, -2, 3, 4,
   -40, 25, 9, -32, -49, -62, -39, 40,
   16, -3, 20, 50, 32, 17, -8, 4,
   -36, 42, 17, -7, -28, 19, 45, -38,
   11, 27, -1, 31, 7, 20, -41, -2,
   -4, 120, 55, 36, 24, -7, -9, 15,
   5, 44, 26, 59, 42, -6, -44, 9,
   33, -5, 16, 18, 43, -53, 27, 29,
   53, 43, 35, 43, 14, 39, 5, 3,
   -17, 6, 11, -18, -11, 7, 43, 113,
   24, -51, 5, -6, -17, 34, -41, 22,
   13, 17, -10, 64, -68, 20, 53, 18,
   -10, 14, -7, -19, 54, -22, 17, -8,
   -17, -9, -40, 6, 41, -8, 87, 26,
   68, 21, -18, 28, 71, -2, -23, 6,
   -29, 24, 2, 37, 46, 19, -35, 22,
   46, -48, 4, -51, -14, -7, 37, 12,
   7, -45, 26, 4, 27, 4, 7, 4,
   36, 0, 63, 1, -17, -21, -6, -9,
   -8, -9, -21, 24, -18, 10, -38, -6,
   -3, 1, -39, -39, -47, 18, 42, 7,
   5, 18, -38, -6, 44, 18, 5, -31,
   -1, -3, 40, -8, 62, -27, 6, -53,
   24, 54, -9, 10, 35, -7, -7, -13,
   65, 21, 36, -12, 6, 29, -10, 58,
   -11, 30, 10, -3, -20, 48, 45, 0,
   45, -3, -15, 6, -4, 33, 42, 28,
   -33, -38, 3, 26, 38, -27, 10, 15,
   -41, -3, 0, 4, -10, 30, -37, 25,
   99, -10, 28, 11, 9, 27, -62, -28,
   5, -51, -8, 44, 44, -29, 72, -28,
   -24, 0, -45, 27, -5, 29, -7, -55,
   22, 5, 21, 1, -34, 39, 55, -6,
   15, 47, 18, 16, -5, 79, 36, 13,
   -34, -13, -15, 1, 33, -29, -10, 45,
   -14, -3, -3, -4, 30, -10, 14, -42,
   -27, -1, -21, -40, -63, -18, -6, -10,
   18, 1, -44, 39, -9, 24, -10, 14,
   -25, -6, -46, 23, -28, -6, -40, 3,
   -7, -30, 71, 2, -10, 32, -2, -2,
   34, -4, -22, 51, -3, 3, 39, -31,
   58, 40, -12, 36, -11, 7, -22, -45,
   -46, 39, 49, -31, -9, 0, -56, 31,
   19, 45, 29, 32, -41, 14, -17, -6,
   4, 10, -14, -58, 50, 0, 9, 37,
   -20, -37, 15, -27, -17, -3, 67, 14,
   -46, 19, -8, -38, 85, 1, -47, 14,
   -15, 3, 16, 9, -12, -19, 34, -15,
   1, 16, -13, 53, 22, 7, 32, 42,
   32, 22, -86, 12, 10, -7, 26, 47,
   55, -1, 18, -4, 8, -8, 2, 24,
   29, 28, -18, -2, 41, 2, -34, -9,
   -39, 13, -8, -8, -69, 41, -9, -2,
   65, -55, 13, -40, -5, -41, 15, 2,
   48, -5, 17, 35, 3, 35, 0, 4,
   -3, 11, -12, -21, 1, 5, 36, -18,
   -15, 9, -20, 0, -26, -30, 1, 3,
   7, -44, -35, 3, 12, -28, -33, -3,
   1, -7, 6, -29, 5, -29, -8, 17,
   33, 44, 4, 43, 8, 19, 18, 60,
   17, 6, -7, 37, -39, -16, 11, 5,
   29, 23, -13, 16, -38, -15, -15, 1,
   28, 18, 7, -7, 51, 51, -60, -5,
   -43, 42, 66, 17, 37, 23, -6, 51,
   -41, -2, -35, -22, 43, -8, 17, -20,
   -8, 25, -10, 34, -36, -47, -38, 29,
   -2, -4, -34, -8, -14, -25, -6, -23,
   -28, -10, 50, 9, -4, 10, -4, -35,
   -44, 63, -16, 5, 29, 85, -19, 13,
   -14, 68, 9, -1, -23, 5, 23, 16,
   31, -22, 20, 38, 7, -52, -17, -27,
   -35, 10, -22, 12, 15, 17, -16, -52,
   -33, -1, 28, 0, -4, -43, -58, -20,
   -12, 1, 9, 19, 5, -52, 19, 21,
   -50, 42, 6, 16, -5, -23, -1, 31,
   -58, -54, 39, 61, -21, 28, -42, 21,
   12, -13, 32, 31, 75, -2, -73, -20,
   -11, -34, 24, 10, 18, 72, 31, -35,
   50, 9, 40, 4, -16, -34, 42, -18,
   2, 50, 51, -12, 11, -11, 27, 40,
   -51, 5, -9, 11, 22, -20, 12, 24,
   18, -8, 37, -16, 0, 46, 9, -9,
   77, 15, 5, -30, 26, 3, 0, 31,
   45, -14, -8, 23, -7, 2, 47, 2,
   -30, -53, 24, 14, 24, -76, 17, 17,
   -100, 22, -34, -5, -82, 52, 40, 2,
   -23, 4, 11, -28, 11, 11, -71, -18,
   4, -27, -58, 11, 42, -4, 10, 27,
   -7, -20, 4, -49, -36, 9, 2, 6,
   5, -17, 42, 1, -76, 27, 15, -8,
   10, -14, -48, 17, -7, -65, -3, 23,
   6, 6, -28, -3, -25, -54, -3, -81,
   3, -21, 9, 76, 17, 15, -5, -12,
   12, 7, 38, 13, -82, 88, -37, -24,
   5, -47, 79, -17, 62, -85, -58, -40,
   -2, 37, 22, -13, -3, -18, 18, 30,
   -59, -10, -6, -6, -15, -1, -34, 22,
   41, 32, -20, 72, 6, -3, 43, 2,
   40, -12, -17, 1, -7, 28, 36, 16,
   -36, 0, 0, 9, 25, -13, -37, -14,
   -35, 66, -27, -20, 11, -24, 8, 25,
   15, 6, -67, -53, 62, 86, 90, 38,
   1, 122, -25, 35, -57, 20, -2, -23,
   -30, 2, -12, 37, -5, -38, 34, 39,
   30, -21, -20, 21, 19, 33, -22, -21,
   -28, 15, 69, -5, -25, -111, -15, 28,
   -4, 4, 23, -16, -41, -19, 26, -21,
   -36, 13, -12, 28, 36, 11, 17, -8,
   1, -43, 13, 5, 15, 24, -38, 16,
   8, 28, -12, -24, 35, 10, -4, -24,
   26, -16, 16, -25, -16, 28, 27, 48,
   -3, 14, 23, -56, 31, -24, 23, 8,
   -5, -6, 22, -43, 10, -46, -23, -23,
   13, -24, -13, 36, 8, 29, 19, 77,
   -41, 4, 9, 30, -7, 8, -10, 38,
   16, 0, 4, -3, -31, -26, 19, 19,
   -21, 30, 24, -11, 14, -17, -15, 12,
   55, 20, 3, 4, 35, 19, 15, 4,
   -74, 12, 10, 9, -17, -1, 9, -3,
   -29, 106, 9, 2, 36, 44, -33, -28,
   -38, 47, 9, 0, 13, 26, -49, -6,
   -8, 15, -5, -38, 29, -37, -41, 1,
   4, -32, -45, 33, 46, 2, 16, -37,
   -34, 4, -45, 51, 31, -3, 28, 30,
   -5, 0, -19, 33, 40, -35, -36, -4,
   -29, -16, -33, 39, 17, 66, 51, 30,
   -70, 15, 18, -3, -6, 25, -11, -6,
   33, -30, -30, 15, -36, 22, 40, -10,
   44, 12, -36, -60, -33, -10, 1, 41,
   -16, -52, -20, 8, 11, -7, 2, 3,
   -3, 17, 44, 13, 50, 39, -43, 36,
   57, 22, 31, 26, 34, -8, -11, 5,
   44, 1, -7, -39, 18, -11, -31, 31,
   50, 39, -40, 29, 13, 21, 61, 9,
   22, 18, 13, 19, 48, 4, 11, -29,
   9, 16, -18, 10, 23, -40, -46, 25,
   -32, 15, 17, -52, -10, -22, 36, 37,
   -33, 46, 1, -17, -10, -31, -70, 17,
   -31, 78, 27, 3, 13, 52, -33, -3,
   -14, 4, 37, 37, -8, -4, -78, 80,
   -17, -11, -52, 15, -18, -35, -25, -22,
   30, 15, 38, 9, -30, -44, 13, -14,
   -68, 5, -40, 19, -20, 23, -61, -58,
   24, -33, 23, -29, -49, 45, 9, 36,
   24, 25, -12, -13, -44, 54, -16, -23,
   24, 9, 51, -17, 11, -20, -22, -30,
   24, -45, 51, -12, -4, -14, -6, -13,
   -41, -38, -32, -27, -6, -38, -44, 7,
   51, -28, 11, -15, 63, -18, -37, -2,
   14, -19, 5, 4, 18, 15, 2, 30,
   30, 46, 29, 30, 43, -13, -42, 35,
   8, -43, 17, -24, 15, 61, -29, -62,
   3, -2, 42, -13, 15, 17, 13, 51,
   22, -7, -30, 4, 63, -30, 4, 22,
   -1, 7, 15, -5, 42, -45, -23, 39,
   -3, 55, -14, -54, -28, -11, -19, -16,
   -1, -1, 9, 33, 21, 6, -40, 4,
   4, -23, 6, -1, 0, 48, 21, 31,
   -6, -28, 18, -62, -38, -18, 55, 5,
   -25, 8, 4, 24, -28, -14, 58, -22,
   53, 42, -20, -3, 38, 5, 35, -44,
   -17, 5, -5, 16, 5, 21, -11, 45,
   -36, 30, 40, -34, 7, -30, 21, -44,
   -5, -7, 10, 40, 11, -21, -12, -12,
   -2, -12, 2, -26, 42, -21, 34, -12,
   -81, 35, 4, 33, -2, -38, -11, 30,
   -1, 8, -16, 11, 27, -23, -65, -17,
   3, 4, 8, 15, -6, 63, 52, 29,
   -17, 71, 4, 6, 9, -1, 55, -1,
   -16, 8, -35, -5, 44, -19, -10, -6,
   -3, -8, 18, -31, -10, -5, 21, 16,
   -3, 57, -33, 5, 23, -27, 100, 2,
   -28, 13, -94, -48, 19, -12, 127, -34,
   50, 22, -31, 70, 24, 51, -45, 27,
   -41, 74, -12, 38, 7, 34, -117, 11,
   39, -27, -16, -1, 22, 15, 3, -7,
   6, -1, -15, 48, 28, 35, 73, 2,
   -33, 13, 33, 24, 54, 12, 37, 15,
   0, 54, -94, 12, -5, -19, 10, 20,
   10, 28, 31, 44, -5, -22, 32, 49,
   -32, -57, 72, -5, 22, 1, -13, -10,
   11, -5, 65, -43, -2, 18, 2, 46,
   59, 6, -36, -18, -29, -19, -18, -5,
   15, -46, 35, -1, 32, -20, 22, -40,
   -7, 11, 1, -16, 0, 3, 39, 8,
   -18, 17, -59, 57, 4, 14, -31, -19,
   -43, 14, -26, 33, 72, -67, -4, -30,
   -13, 110, 13, 20, 18, -28, 45, -21,
   35, 5, -6, 29, -14, 8, -25, -34,
   -1, -16, 53, 7, 32, -9, -10, -19,
